#ifndef BEBOP_POLICY_H
#define BEBOP_POLICY_H

#include <math.h>
#include <string.h>
#include <Arduino.h> // Required for PROGMEM

// ============================================================================
// Generated on: 2026-01-29 13:04:58.767069
// Architecture: 30 inputs -> 6 outputs
// ============================================================================

namespace bebop_policy {

    constexpr int OBS_DIM = 30;
    constexpr int ACTION_DIM = 6;

    // Observation Scales (1.0 = Raw Values)
    // We define these so main_sim.cpp compiles, even if they are 1.0
    constexpr float SCALE_LIN_VEL = 1.0f;
    constexpr float SCALE_ANG_VEL = 1.0f;
    constexpr float SCALE_DOF_POS = 1.0f;
    constexpr float SCALE_DOF_VEL = 1.0f;

    // Action Scales
    constexpr float SCALE_ACTION_LEGS = 0.8000f;
    constexpr float SCALE_ACTION_WHEELS = 20.0000f;

    // Observation Clipping (Safety)
    constexpr float CLIP_LIN_VEL = 3.0000f;
    constexpr float CLIP_ANG_VEL = 10.0000f;
    constexpr float CLIP_DOF_VEL = 15.0000f;

    const float layer_0_weight[] PROGMEM = {
        0.10656214f, -0.15929483f, -0.10259930f, 0.17035306f, -0.12274756f, 0.01796837f, -0.49600881f, 0.12032446f, 0.13069594f, 0.05764724f, 
        -0.01897474f, 0.17111099f, -0.29077175f, 0.09053863f, -0.07316061f, 0.11211019f, -0.16143280f, 0.04284834f, -0.18374906f, -0.14461695f, 
        0.16348682f, -0.00891538f, 0.10789149f, -0.07992124f, -0.09376717f, -0.06092355f, -0.02742981f, 0.08196340f, 0.00815833f, -0.00374830f, 
        -0.31090587f, 0.20188248f, 0.52947623f, 0.07894985f, -0.05069578f, -0.04268793f, -0.17674635f, -0.12066696f, 0.30718571f, 0.17534061f, 
        -0.08423326f, -0.13139412f, -0.16916956f, 0.09536601f, 0.05892266f, -0.14670745f, 0.12130432f, -0.09873170f, -0.05934880f, -0.04598393f, 
        -0.05881186f, 0.02502561f, -0.05213677f, -0.01551601f, -0.07693824f, 0.14129499f, 0.09975683f, -0.34992680f, -0.06133943f, 0.18839420f, 
        0.41834256f, 0.07596727f, 0.25688881f, -0.17994823f, -0.19198757f, -0.20895520f, -0.15387018f, -0.50114298f, 0.08862849f, 0.15925294f, 
        0.09364776f, -0.26498625f, -0.00467385f, 0.04102156f, -0.08470038f, -0.18766502f, 0.12259379f, 0.19214718f, -0.08216380f, -0.07273190f, 
        0.04766542f, 0.11624090f, 0.00483439f, -0.16097505f, -0.00794515f, 0.06446399f, -0.05369639f, 0.36450553f, 0.16738047f, 0.32822150f, 
        -0.10476512f, -0.05431431f, 0.10047152f, 0.00163931f, -0.09331024f, 0.16158840f, -0.42169133f, -0.20651431f, -0.32768890f, 0.07061078f, 
        0.09037894f, -0.31974086f, -0.08920420f, 0.01766890f, -0.15284978f, -0.12868077f, -0.13930339f, 0.05855703f, 0.01492299f, 0.07097065f, 
        0.09631809f, 0.19074117f, 0.07996573f, -0.14516790f, -0.17773212f, -0.12154679f, -0.08296649f, -0.26692283f, 0.13954088f, -0.22842184f, 
        -0.07012147f, 0.10298573f, 0.29768333f, 0.09558838f, -0.15390581f, -0.10363538f, -0.16574255f, -0.01801877f, -0.10903184f, -0.14787151f, 
        -0.05306155f, 0.13927266f, -0.19515608f, -0.12390056f, -0.08186088f, -0.12952754f, -0.07630631f, 0.06938667f, 0.07468817f, 0.02172862f, 
        -0.07891621f, -0.09751298f, -0.16106327f, 0.12116606f, -0.18899935f, 0.16727400f, -0.09910712f, -0.16791837f, 0.13685285f, 0.08946989f, 
        0.26624501f, 0.35874906f, 0.29823440f, 0.13145906f, 0.16891930f, -0.10867034f, 0.05565243f, -0.11769564f, 0.03475224f, -0.14131525f, 
        -0.09106696f, -0.12946670f, 0.23541413f, -0.11584052f, -0.06859134f, 0.10511927f, 0.19576311f, -0.07450654f, -0.02736847f, 0.01827698f, 
        0.01083262f, 0.17320482f, -0.19090343f, -0.04481375f, 0.05515870f, -0.19107197f, 0.11962467f, -0.10848691f, 0.10388606f, -0.08696786f, 
        0.18063599f, -0.02821599f, -0.36044908f, -0.17451544f, 0.10538366f, -0.09377458f, -0.43697879f, 0.01150745f, -0.10316104f, 0.09198958f, 
        0.20752257f, 0.04813157f, -0.07874616f, 0.04779510f, 0.04252962f, -0.09016415f, -0.09606825f, -0.08511283f, -0.01171047f, -0.04128231f, 
        0.07120617f, 0.15198003f, 0.20564325f, -0.15610163f, -0.03718756f, -0.14943697f, -0.15630448f, -0.17699544f, 0.09694850f, -0.08122614f, 
        -0.37301141f, 0.40816304f, 0.29923642f, 0.24853501f, -0.02518034f, 0.09156405f, 0.08744211f, 0.24830300f, 0.19120565f, -0.21245137f, 
        -0.04524456f, 0.22034834f, 0.13641316f, -0.00163489f, -0.07580251f, 0.13064620f, -0.09095328f, 0.07176465f, -0.10312149f, 0.05081398f, 
        -0.04810079f, -0.22477368f, 0.05400270f, -0.03679415f, 0.02354457f, -0.15362541f, 0.09016461f, 0.22397073f, 0.16082785f, -0.25749943f, 
        -0.02312606f, -0.24715479f, -0.19705866f, -0.01083220f, -0.07435025f, 0.08286688f, -0.24589120f, -0.06475858f, -0.27926257f, 0.02862483f, 
        -0.00621299f, -0.09727877f, 0.09345040f, -0.12862779f, 0.04309259f, 0.02471162f, -0.13711472f, -0.04926881f, 0.12691212f, -0.05102771f, 
        -0.07748368f, 0.02952062f, 0.10328162f, -0.06984168f, -0.21888749f, -0.02539392f, -0.02071755f, 0.24017197f, -0.17258330f, -0.15956523f, 
        -0.14506932f, -0.54023647f, -0.52413011f, 0.08252147f, -0.11311320f, -0.07747462f, -0.02895102f, -0.41028726f, 0.01438379f, -0.11200029f, 
        -0.20811564f, -0.13000588f, -0.03489283f, 0.11326274f, 0.06713490f, 0.08182379f, -0.11186264f, -0.05421890f, -0.03937086f, -0.09139486f, 
        0.01037379f, -0.14530319f, 0.11853407f, 0.12220809f, 0.03035874f, 0.18829571f, 0.15109770f, -0.48267293f, 0.09136183f, -0.12211597f, 
        -0.28360033f, -0.05753412f, 0.35212612f, 0.12877090f, -0.06584529f, -0.32999805f, -0.21914475f, -0.40673524f, 0.11583616f, 0.13911976f, 
        -0.09081327f, -0.10037788f, 0.01682173f, 0.03195729f, 0.08111635f, 0.04533069f, 0.04426268f, -0.07746381f, -0.09422237f, 0.00077191f, 
        -0.00644767f, -0.10048120f, -0.08378832f, 0.13921894f, 0.00103543f, 0.12259734f, -0.08399881f, -0.04420093f, -0.16393684f, 0.03465721f, 
        0.21815442f, 0.70315516f, 0.44739565f, 0.20478402f, -0.11023282f, -0.06556489f, -0.45906508f, -0.10897073f, 0.04718496f, 0.26224464f, 
        -0.09633654f, -0.22506601f, -0.02503697f, -0.12655319f, -0.07496202f, -0.07102130f, -0.09980259f, 0.02164811f, 0.02174849f, 0.04403175f, 
        -0.06565549f, 0.17455542f, 0.15624477f, -0.08401696f, 0.08945660f, 0.13551867f, 0.07860022f, -0.41032875f, -0.01948296f, -0.11362413f, 
        -0.16365688f, 0.29546255f, 0.35058847f, 0.11151485f, -0.02003546f, 0.08342521f, 0.25035080f, 0.08884492f, 0.09361395f, -0.17274542f, 
        -0.00899895f, 0.26744527f, -0.21999805f, -0.04019663f, -0.01797310f, 0.12628314f, -0.11122488f, -0.10024765f, 0.06431515f, -0.02870456f, 
        -0.00235583f, -0.08779683f, -0.13502513f, -0.11526392f, 0.02454564f, 0.02392266f, 0.03989775f, -0.08842763f, -0.09407635f, -0.01525582f, 
        -0.23756242f, 0.85717744f, 0.18445575f, 0.25953916f, -0.04984737f, 0.00013577f, -0.00224809f, -0.15901197f, -0.00047665f, 0.10614229f, 
        -0.29402292f, 0.13516364f, -0.04286297f, 0.01969968f, 0.04004558f, -0.08271054f, -0.10100487f, 0.02173043f, 0.05368448f, -0.03674616f, 
        0.06347344f, -0.07645855f, -0.13980681f, 0.04687605f, 0.15370889f, 0.02397364f, -0.19539870f, -0.05887356f, -0.09130907f, -0.38095716f, 
        -0.11653217f, -0.44092533f, 0.49025401f, 0.20795728f, 0.04684334f, 0.15450971f, -0.11206034f, 0.08174369f, -0.40176997f, -0.03035967f, 
        0.00080711f, 0.16566682f, 0.03281289f, -0.12958336f, -0.13164483f, -0.02573563f, 0.12211921f, -0.10657687f, -0.06495382f, 0.03961449f, 
        0.06892260f, 0.13589808f, 0.03146246f, 0.11335558f, -0.13503668f, -0.18112524f, -0.11027679f, -0.00839304f, 0.07701007f, 0.11535282f, 
        0.36894456f, 0.33932814f, -0.04695270f, -0.15119375f, 0.10759699f, 0.28849238f, 0.30564126f, 0.00896936f, 0.26867861f, 0.03091567f, 
        -0.10592716f, 0.19390295f, 0.11110564f, 0.07561825f, 0.11515543f, 0.00611125f, 0.14092170f, -0.03498785f, 0.19687876f, -0.06827711f, 
        0.08434773f, -0.06752758f, -0.13202806f, -0.04875926f, -0.00154666f, 0.02028418f, -0.06993186f, -0.08234590f, -0.13154025f, -0.14758927f, 
        -0.09945803f, 0.05934420f, 0.00350488f, -0.03337790f, -0.16661927f, -0.31144434f, -0.16767575f, -0.28249303f, -0.03859232f, -0.02709454f, 
        0.09675238f, 0.23073857f, -0.32176623f, -0.07080872f, -0.11249761f, 0.02597800f, -0.15747410f, 0.00975974f, -0.08031956f, 0.05990095f, 
        -0.09013617f, -0.23843707f, 0.00922550f, -0.10016802f, 0.13526452f, 0.05444129f, 0.14023781f, 0.47457761f, 0.03235336f, 0.31942102f, 
        0.23472542f, -0.29119197f, 0.19232260f, 0.13471568f, -0.14184400f, 0.06105648f, 0.18939051f, -0.42654288f, 0.15343100f, -0.13512044f, 
        -0.04192403f, -0.21961676f, 0.07076464f, 0.02430762f, -0.09312201f, -0.14927602f, -0.08024222f, 0.15069595f, 0.11490652f, -0.01221867f, 
        -0.12803046f, -0.16462080f, -0.05719002f, -0.00079001f, -0.26522815f, -0.08781227f, -0.07396013f, 0.00043418f, 0.05428026f, -0.06323209f, 
        0.02137715f, 0.05080806f, 0.37298015f, -0.05710765f, -0.13093761f, -0.14693600f, -0.24118440f, 0.08263672f, 0.33083421f, 0.18018657f, 
        0.19526717f, 0.15718153f, -0.09397183f, 0.06291205f, 0.04919516f, 0.09448346f, -0.05623221f, -0.20193991f, 0.04919261f, 0.01277152f, 
        -0.06729036f, 0.05503408f, 0.01990180f, 0.12947468f, 0.01368989f, 0.05108104f, -0.13037738f, 0.13911179f, -0.00457121f, 0.22779652f, 
        0.30873671f, 0.40760887f, 0.12679952f, 0.03909669f, -0.16209638f, -0.16647826f, 0.29118755f, -0.02232194f, 0.34800079f, 0.08527906f, 
        0.05040839f, -0.05056426f, 0.11041874f, 0.04852815f, 0.10753721f, -0.10322380f, -0.04056877f, -0.17904933f, -0.05140876f, 0.10841259f, 
        -0.06369617f, 0.14610781f, -0.04911871f, 0.13931048f, -0.00617133f, -0.00930789f, 0.12477548f, -0.38764396f, -0.00826280f, -0.01092688f, 
        -0.11808469f, -0.19894843f, 0.01198515f, -0.06046578f, -0.07897695f, 0.01896344f, 0.09188385f, -0.15493803f, -0.06435147f, -0.08025241f, 
        -0.12195196f, -0.20684929f, 0.08290648f, -0.04158553f, 0.00622038f, -0.19310647f, 0.18874255f, 0.16524573f, 0.13009767f, -0.04544565f, 
        -0.05051377f, -0.07351368f, -0.04640190f, -0.13697463f, -0.09061709f, -0.19464210f, 0.17037745f, 0.21907070f, 0.16049273f, -0.01647084f, 
        0.01589222f, 0.49729970f, 0.42135465f, -0.04626224f, 0.04255448f, 0.09834787f, -0.18166378f, -0.13490967f, 0.17285246f, 0.14803049f, 
        -0.26261476f, -0.19169953f, 0.27321157f, 0.02034650f, -0.07745569f, 0.11501005f, -0.09215739f, 0.01091363f, 0.07876142f, -0.07692025f, 
        0.00591495f, 0.05565942f, -0.24479555f, -0.18824889f, -0.15755074f, 0.18613695f, -0.01815254f, -0.02909505f, -0.02774720f, -0.38443816f, 
        -0.15444285f, -0.16176872f, -0.07353545f, 0.16790469f, -0.06930980f, -0.14683893f, -0.02045376f, -0.11049441f, -0.11795090f, 0.01551675f, 
        0.09676835f, -0.24080437f, 0.16558261f, 0.08344249f, 0.05726575f, -0.13363159f, 0.01308458f, 0.07607209f, -0.01709813f, -0.02983613f, 
        0.10326061f, -0.14905290f, -0.08897929f, 0.07865963f, -0.02997391f, 0.07387855f, 0.11111949f, 0.17343859f, -0.03736281f, -0.24992809f, 
        0.07304528f, -0.22350927f, 0.62979144f, 0.01658735f, 0.12158597f, 0.18797813f, 0.05919302f, -0.09676457f, 0.28809318f, 0.00645738f, 
        0.07527546f, 0.02524446f, 0.02918428f, 0.08989346f, -0.04420558f, -0.05203790f, 0.15851782f, -0.06497893f, 0.16876361f, -0.02192046f, 
        0.01402757f, 0.11620282f, -0.16488487f, -0.07177581f, -0.08670756f, -0.16461679f, 0.18088849f, -0.16751851f, -0.09634487f, -0.02478192f, 
        0.26360184f, 0.02973470f, 0.20562282f, 0.22418454f, -0.02642603f, 0.00650332f, 0.07250921f, 0.06359830f, 0.33750191f, 0.02328916f, 
        0.09740298f, -0.21434267f, 0.02859591f, -0.09038618f, 0.00520809f, -0.01213027f, -0.11388607f, 0.09924977f, 0.12878743f, -0.03277469f, 
        0.01779861f, -0.06549291f, 0.12619834f, 0.11592221f, 0.06502002f, 0.13421185f, -0.13679050f, -0.12050197f, -0.05190377f, -0.15828626f, 
        -0.14796551f, 0.28942814f, -0.37078556f, -0.06488709f, 0.08594965f, -0.20669642f, 0.04710417f, -0.03649380f, 0.01870592f, -0.08264811f, 
        0.19076575f, 0.16616510f, -0.01499424f, 0.10700860f, -0.12502864f, -0.00614590f, 0.13766393f, -0.04092479f, 0.03503339f, 0.05359055f, 
        -0.11168387f, -0.00206690f, 0.15292101f, -0.13631098f, 0.03269922f, -0.03068285f, -0.01342334f, 0.23754607f, -0.08203899f, 0.17312452f, 
        -0.15443884f, -0.36702862f, 0.17954990f, 0.12355871f, 0.09901250f, 0.28216386f, -0.20752177f, -0.11781803f, 0.11546369f, 0.30808923f, 
        0.18500891f, -0.20509811f, 0.21811089f, 0.06322838f, -0.02006624f, 0.04128080f, 0.11561932f, 0.08937380f, -0.13058330f, 0.02000717f, 
        -0.07666241f, 0.12875807f, 0.01913810f, 0.11128307f, -0.10476901f, 0.24597034f, 0.22161831f, -0.19981149f, 0.15551008f, 0.05497454f, 
        -0.27574185f, 0.23733307f, 0.17051646f, 0.23737273f, 0.14155303f, 0.36781910f, -0.18189578f, 0.64484107f, 0.00529090f, 0.24270397f, 
        -0.12921344f, -0.21345885f, -0.13857596f, 0.04513922f, 0.05978458f, 0.04205748f, 0.08503393f, -0.16155785f, 0.09819248f, -0.03451966f, 
        0.00686723f, -0.04526034f, 0.12980163f, 0.07592119f, -0.13356398f, -0.16281451f, -0.18036738f, -0.15386319f, 0.02441261f, -0.20603228f, 
        -0.17953749f, -0.15507238f, 0.36095414f, -0.19750762f, -0.19701128f, -0.20441484f, -0.44974282f, -0.09487294f, 0.28487152f, 0.07276604f, 
        -0.07871926f, 0.11918642f, -0.26056126f, -0.09063715f, 0.01653582f, -0.04314872f, -0.12758346f, -0.12703951f, 0.00340592f, 0.05332080f, 
        -0.09584109f, 0.06379104f, 0.14415562f, 0.04801434f, 0.05808775f, -0.13684595f, 0.22490479f, -0.11762549f, 0.05333618f, 0.34026501f, 
        -0.04013943f, 0.54608566f, -0.20801578f, 0.12647511f, 0.02826374f, 0.32124859f, -0.33003646f, 0.38723502f, -0.04071363f, 0.25022334f, 
        -0.11833062f, -0.11898098f, -0.10814952f, -0.13822417f, -0.06166001f, -0.10158410f, 0.14874762f, -0.04650399f, 0.05864567f, -0.05196415f, 
        0.01753972f, -0.13593429f, -0.15935615f, 0.05574803f, 0.18273693f, 0.14164428f, -0.13934842f, 0.07363518f, 0.15983208f, -0.32726872f, 
        0.23578753f, 0.22744341f, -0.11307288f, -0.02518683f, 0.05254317f, 0.18040894f, -0.11772121f, 0.16070223f, -0.04412788f, 0.08251489f, 
        0.07624494f, -0.10995582f, -0.08952226f, 0.11766484f, 0.09671608f, -0.13174053f, 0.08220428f, -0.07614150f, -0.02618103f, 0.08866016f, 
        0.10579266f, 0.15668721f, -0.13236322f, 0.06590793f, -0.13691667f, 0.05942184f, -0.21049686f, -0.09590154f, 0.10756612f, -0.36647111f, 
        0.20610245f, 0.13942282f, -0.19869545f, 0.13814618f, 0.12590915f, 0.11424161f, 0.29628560f, 0.10985715f, 0.11054663f, -0.12020555f, 
        -0.21978611f, -0.10648544f, -0.13629270f, -0.00392715f, 0.10930964f, 0.01557164f, 0.14401315f, 0.05529144f, 0.07759809f, -0.13460624f, 
        0.06331184f, 0.14943504f, -0.18181860f, 0.02656173f, 0.08458193f, -0.14819390f, 0.10414444f, -0.11405418f, -0.03724544f, -0.11528997f, 
        -0.30881128f, -0.06725847f, 0.01867230f, -0.18175191f, -0.12927116f, -0.19928959f, -0.62148756f, 0.14787349f, -0.11349776f, 0.19470611f, 
        0.25498343f, -0.06896197f, -0.12872562f, 0.12037571f, 0.00578737f, 0.07364646f, -0.10403915f, -0.05698954f, 0.10880645f, 0.07178999f, 
        -0.03258714f, -0.01415951f, 0.23586616f, 0.03622609f, -0.10718485f, 0.15922949f, 0.17376083f, -0.06720316f, -0.17949045f, 0.04558829f, 
        -0.01696183f, -0.14129631f, 0.38797352f, -0.17889404f, -0.18498299f, -0.00917214f, -0.11967087f, -0.18411043f, -0.10900424f, 0.10491055f, 
        -0.12976201f, -0.08560447f, -0.14089543f, -0.02029171f, 0.01303815f, 0.04507293f, -0.19265258f, -0.09145246f, 0.04134691f, -0.04711912f, 
        -0.02025892f, -0.13715683f, -0.21603893f, 0.07836752f, -0.08462526f, 0.13990037f, -0.15183860f, 0.01901242f, 0.02575023f, -0.02772867f, 
        0.12556137f, -0.13533758f, -0.32018766f, -0.11159009f, 0.00971508f, 0.33553949f, -0.16245122f, 0.21223627f, -0.13675760f, -0.02336632f, 
        -0.10603689f, -0.23933251f, 0.30551156f, 0.11551441f, -0.03549459f, 0.08232354f, 0.07764360f, 0.02835486f, -0.04841770f, -0.05758216f, 
        0.07444356f, -0.03629875f, -0.19622414f, 0.15926106f, 0.08738655f, -0.03399239f, -0.03230489f, 0.04155599f, -0.06600025f, -0.19737591f, 
        0.00839481f, -0.40468442f, -0.47151786f, -0.03330571f, -0.06999265f, -0.22908619f, 0.05317759f, -0.23673247f, -0.11887477f, -0.15629044f, 
        -0.07844859f, 0.23736835f, -0.23384050f, -0.13144295f, -0.08960939f, 0.03303874f, -0.01016307f, -0.00965653f, -0.07884549f, 0.06735412f, 
        -0.08499937f, -0.11825693f, 0.05042721f, 0.00751193f, -0.01276989f, 0.12743835f, -0.10908116f, 0.24368945f, 0.14856413f, 0.13343717f, 
        0.34211031f, -0.16337866f, -0.25112134f, -0.01645342f, -0.05221581f, 0.46202701f, -0.09112819f, 0.14195973f, -0.26578286f, 0.12042679f, 
        -0.09817779f, 0.05461619f, 0.03746681f, -0.01126864f, 0.01587294f, -0.10781188f, -0.02690257f, 0.08275141f, 0.02072942f, 0.01751173f, 
        0.00920722f, -0.10238006f, 0.12421253f, 0.11542610f, -0.03285309f, -0.06174558f, -0.14078416f, -0.09243315f, 0.04096626f, -0.31193006f, 
        -0.12987618f, 0.20540762f, -0.08963171f, 0.03121808f, -0.07758760f, -0.03849304f, -0.00155151f, 0.02790693f, 0.06522312f, 0.01260483f, 
        -0.01490230f, 0.04910125f, 0.34877825f, -0.04127551f, -0.11347358f, -0.11648013f, 0.03718536f, 0.06445402f, -0.12829226f, -0.09765308f, 
        -0.00761635f, -0.02493769f, 0.17270425f, 0.03904440f, -0.07184271f, 0.19542259f, 0.18693030f, 0.30771846f, -0.03872155f, 0.04846395f, 
        0.39649209f, 0.46253246f, 0.31532601f, 0.12778246f, -0.10712590f, 0.19185549f, -0.20046639f, 0.16025978f, 0.25962079f, -0.01805922f, 
        0.02645622f, -0.04219625f, 0.03695289f, -0.03083087f, 0.02206893f, -0.08899028f, -0.00445615f, -0.14304453f, -0.12783211f, 0.00325181f, 
        -0.09314696f, -0.00349140f, -0.06845385f, -0.04216197f, -0.08040538f, 0.07927814f, -0.08075082f, 0.08854034f, 0.00121353f, 0.01986443f, 
        -0.28993544f, 0.09320275f, 0.38746971f, 0.17546928f, -0.11214134f, -0.22390166f, 0.00633623f, -0.21235712f, 0.00327221f, 0.11280389f, 
        -0.20980671f, 0.13780971f, -0.19589375f, 0.09916621f, 0.06100091f, 0.00986499f, -0.09574973f, 0.06083253f, -0.10057124f, -0.05687941f, 
        0.05167143f, -0.14904602f, -0.11399576f, 0.17278904f, 0.17743160f, -0.14997499f, -0.00746103f, 0.09923095f, 0.05948471f, 0.23192807f, 
        -0.05787531f, -0.24936078f, 0.35662517f, 0.22596519f, -0.00647157f, 0.29162741f, 0.20558041f, -0.33285308f, 0.12769899f, -0.13623257f, 
        -0.10146340f, -0.19542389f, 0.19036622f, 0.04552901f, 0.00700658f, 0.06809886f, -0.06207362f, 0.15975299f, 0.07714465f, -0.00372668f, 
        0.00018060f, -0.15538447f, -0.09475458f, 0.12345121f, 0.13655844f, 0.10010561f, 0.06057828f, 0.02588151f, -0.08730867f, -0.31715658f, 
        -0.04268197f, -0.20164062f, -0.05350523f, 0.13929631f, 0.09816845f, 0.02849316f, 0.20882528f, -0.21219949f, 0.04359610f, -0.18025549f, 
        0.15334974f, 0.22052465f, -0.27682707f, -0.00482905f, -0.05685993f, -0.10625815f, 0.10343259f, -0.09406566f, 0.10832845f, -0.09478011f, 
        0.08347217f, -0.12310494f, -0.01781576f, -0.04010118f, -0.12735027f, -0.13348547f, 0.08429345f, 0.31948268f, -0.06077342f, 0.15850665f, 
        -0.19669379f, -0.25199378f, 0.41361439f, -0.26291093f, -0.05904086f, -0.39201126f, 0.10583353f, -0.71250296f, 0.15323886f, 0.15231018f, 
        0.21407746f, -0.06693366f, 0.23449486f, -0.03950476f, -0.05823388f, 0.03032952f, -0.13220760f, 0.11374082f, -0.04321541f, -0.05798041f, 
        0.04199486f, -0.16705668f, -0.05825540f, -0.02041236f, -0.17258483f, -0.13876756f, -0.11471467f, -0.15653495f, 0.01957955f, 0.31851733f, 
        0.24285205f, 0.04741189f, 0.33517525f, 0.00280855f, -0.20446365f, 0.15303177f, -0.29048619f, 0.03833259f, -0.04876896f, 0.29357338f, 
        -0.21007918f, -0.22067949f, -0.11044390f, 0.08972093f, -0.00158279f, -0.15322851f, -0.07260613f, -0.09376039f, 0.09121224f, 0.01640891f, 
        -0.01208992f, 0.06301747f, 0.13616516f, -0.07696095f, 0.02705147f, -0.12262467f, 0.00975608f, -0.23393145f, -0.16980979f, -0.00790005f, 
        0.24152406f, -0.32760614f, -0.34330550f, -0.08936915f, 0.06442668f, -0.16927801f, 0.23910674f, -0.31376195f, 0.24036509f, -0.02415580f, 
        -0.03779595f, 0.17787988f, 0.29266199f, 0.11957060f, 0.12573560f, -0.04870386f, 0.18304476f, -0.08612001f, 0.03789818f, 0.02321123f, 
        -0.10383624f, 0.16561186f, -0.18711904f, 0.17867291f, 0.13720028f, -0.08848857f, 0.12948996f, -0.08704767f, 0.13053554f, 0.28891701f, 
        -0.22890879f, -0.13071734f, 0.56896842f, -0.05367601f, -0.11672173f, 0.25925341f, -0.06736717f, 0.39342162f, -0.09088232f, 0.05148955f, 
        0.10737750f, -0.07123316f, 0.15830699f, -0.04572935f, -0.03875147f, -0.13840441f, 0.03399708f, -0.04379543f, 0.04152547f, 0.05125764f, 
        -0.07044908f, 0.14935781f, 0.05629845f, -0.11576198f, 0.04176838f, 0.10267361f, -0.12558660f, 0.26767656f, -0.13542101f, -0.07521357f, 
        0.26218629f, 0.09015204f, 0.00002947f, 0.01312401f, -0.02448300f, -0.14138201f, 0.00940623f, 0.35189730f, 0.20451055f, 0.15722802f, 
        -0.01842110f, -0.11410389f, 0.09729967f, 0.05796366f, 0.00817906f, -0.09844229f, 0.08822653f, -0.02414228f, 0.13011114f, 0.08733627f, 
        -0.03393933f, -0.14872104f, -0.11470866f, 0.07133938f, -0.05890693f, -0.24852261f, -0.05127242f, -0.01293556f, 0.05290413f, -0.40998256f, 
        -0.36040676f, 0.20050947f, 0.30183235f, 0.00068275f, 0.08901425f, 0.12028501f, -0.36119989f, 0.04128424f, -0.15926416f, 0.12421191f, 
        0.19358432f, 0.10374720f, 0.06272056f, -0.15121223f, -0.03590734f, -0.07462831f, -0.02583179f, 0.06365421f, 0.10968308f, -0.09795447f, 
        -0.06774288f, 0.14258155f, -0.15807903f, -0.08503969f, 0.06191036f, -0.00066617f, 0.22326599f, 0.10895680f, -0.05947683f, -0.12953788f, 
        0.25278413f, -0.26322174f, -0.42064106f, -0.09669349f, 0.05664952f, -0.07919711f, -0.30360591f, 0.19178721f, -0.14900704f, -0.11569571f, 
        0.13811825f, 0.00590369f, 0.14389443f, -0.15298304f, -0.02679716f, 0.08969843f, -0.03829847f, -0.22894603f, 0.00087431f, -0.13246049f, 
        0.14942227f, -0.14827788f, 0.05126844f, -0.08523910f, 0.08502128f, 0.03285385f, 0.00347844f, -0.13470797f, -0.04097769f, 0.24354102f, 
        -0.01961839f, -0.10448522f, -0.06846027f, 0.06775995f, -0.16495737f, 0.01144045f, -0.04844766f, -0.02634087f, 0.35225824f, -0.07639516f, 
        0.00979861f, -0.07129455f, -0.08401360f, -0.02870015f, -0.10680787f, -0.07456511f, -0.14911586f, 0.06148704f, -0.09659871f, 0.06953624f, 
        0.01129454f, 0.01487413f, 0.04458399f, -0.19223313f, -0.21398306f, -0.16035432f, -0.17133081f, -0.23261325f, 0.05630495f, -0.31716380f, 
        -0.14397629f, -0.11662441f, 0.31193969f, -0.11470477f, 0.18670858f, 0.05834805f, 0.33386672f, 0.09227688f, -0.26854572f, 0.01575121f, 
        0.18410936f, 0.11762511f, -0.09700244f, 0.06438728f, -0.13190080f, 0.09062766f, 0.14240207f, -0.04666629f, 0.06523984f, 0.02631238f, 
        -0.01007835f, 0.10200413f, 0.15509075f, -0.22159830f, -0.13327664f, 0.00020989f, 0.17753656f, 0.37935767f, 0.12095410f, -0.13816254f, 
        0.24945867f, 0.06723250f, 0.05460030f, -0.29394481f, -0.04812285f, -0.34343517f, -0.00145967f, -0.44559807f, 0.12438782f, 0.06496949f, 
        0.00067311f, -0.21260130f, -0.02258033f, -0.02880440f, 0.11291329f, -0.13799685f, -0.10032233f, -0.02146318f, -0.04239472f, -0.09279318f, 
        -0.07347397f, -0.00246844f, -0.14017674f, -0.10084881f, -0.24303940f, -0.05618004f, -0.12261429f, 0.03951852f, 0.05410316f, 0.28687575f, 
        -0.26911101f, -0.00153375f, -0.03109903f, 0.26743957f, -0.18231577f, 0.12391061f, -0.14549555f, 0.09404489f, 0.12054957f, -0.03529546f, 
        -0.08383935f, 0.05210150f, -0.10172179f, -0.07777871f, -0.06329264f, -0.17401473f, 0.02836244f, -0.07311690f, 0.04532058f, -0.02018725f, 
        0.00444529f, -0.15494037f, -0.01909303f, -0.01623726f, -0.19138075f, 0.01867641f, 0.07220577f, -0.24979247f, -0.03203431f, 0.05704999f, 
        -0.16958553f, -0.17436048f, 0.01776998f, 0.03483350f, -0.09903085f, 0.10391211f, -0.12297884f, -0.15535587f, 0.08807014f, 0.07342350f, 
        -0.16736226f, 0.13808139f, -0.13579457f, -0.08077572f, 0.02669434f, 0.07637476f, -0.05629644f, -0.11838391f, 0.08181136f, -0.02938440f, 
        0.02206606f, -0.08315329f, -0.04793306f, 0.13168910f, -0.12672108f, -0.13650416f, -0.16510527f, -0.29678965f, 0.10487729f, -0.04298591f, 
        -0.16791284f, -0.28946728f, -0.55056816f, 0.14509562f, 0.09149998f, -0.40700668f, -0.17936523f, -0.42761990f, 0.10245307f, -0.07553989f, 
        -0.00905804f, -0.20851877f, -0.14079198f, 0.07365470f, 0.09497710f, 0.09644017f, -0.01621613f, 0.04551070f, 0.07810548f, -0.06947377f, 
        0.02615077f, 0.13587135f, 0.22647612f, 0.08089450f, -0.17925830f, -0.11933003f, 0.12559921f, 0.06804837f, -0.12067505f, 0.24916227f, 
        0.40832365f, 0.14833705f, -0.02252766f, 0.08914047f, 0.12465234f, 0.03829103f, -0.08500765f, 0.07448436f, 0.14167936f, -0.11079630f, 
        0.26580891f, 0.14670819f, 0.22111732f, -0.15431629f, 0.01867473f, 0.17828146f, 0.00944930f, 0.09586453f, -0.13617545f, 0.02919290f, 
        0.00491060f, 0.05491135f, -0.05398195f, 0.11088097f, -0.02557514f, -0.02801906f, 0.03652253f, -0.22926310f, -0.09966452f, -0.10184194f, 
        -0.08795879f, 0.34179246f, -0.53614366f, 0.20905538f, -0.05107627f, 0.05313680f, 0.03644256f, 0.14731760f, 0.04276146f, 0.00575470f, 
        0.02996787f, 0.11863788f, 0.04962534f, -0.15014678f, 0.08069792f, 0.06727949f, -0.15168272f, -0.02283585f, -0.03374980f, -0.03678745f, 
        0.08472003f, 0.04897947f, -0.12372557f, 0.10905831f, 0.16286467f, 0.08493463f, -0.05209760f, 0.04176727f, 0.13548012f, -0.08304998f, 
        0.23040883f, -0.29554743f, -0.32162136f, -0.04199975f, 0.08599678f, -0.20516521f, 0.16086756f, -0.34567177f, 0.04945531f, 0.06907722f, 
        0.23833320f, -0.07547094f, 0.08749072f, 0.13672471f, -0.09547104f, -0.00520400f, -0.04924471f, 0.01281563f, 0.06308451f, 0.08974725f, 
        -0.02714680f, 0.17693165f, 0.16791600f, -0.00498278f, 0.15118654f, -0.09719351f, -0.10295109f, -0.25310686f, -0.04566028f, -0.02191334f, 
        0.24310578f, 0.12450394f, -0.20631516f, 0.14131555f, -0.15128431f, -0.27344313f, -0.12486393f, -0.45194697f, -0.05552583f, -0.12045754f, 
        -0.22635943f, -0.24101479f, 0.24838515f, 0.10315085f, -0.01274446f, 0.00441520f, 0.05630908f, 0.05277086f, -0.13297018f, -0.09313700f, 
        0.09417893f, -0.12273922f, 0.14610830f, -0.17322013f, -0.17348021f, -0.19715564f, 0.13440183f, 0.13883169f, -0.11083619f, -0.26996309f, 
        0.29529294f, -0.23690625f, 0.25884083f, 0.08431157f, -0.02870225f, -0.25495508f, 0.08812912f, -0.44129103f, -0.20815094f, -0.10813041f, 
        -0.20445746f, -0.18208101f, -0.00395166f, 0.10780990f, 0.07815117f, -0.13569151f, 0.12953253f, 0.17746285f, -0.06159353f, -0.07372589f, 
        0.04366751f, 0.06728391f, -0.03340305f, 0.06898288f, -0.12084370f, -0.14517725f, 0.11983524f, 0.09580110f, -0.08027191f, 0.43745553f, 
        -0.41358203f, 0.33551046f, -0.25906605f, 0.14170897f, -0.14149506f, 0.05274157f, -0.40204605f, -0.07208420f, -0.18584462f, 0.06680088f, 
        0.20002516f, -0.23311926f, 0.18159905f, -0.00973338f, -0.15229240f, -0.03014749f, 0.00611170f, 0.15179746f, -0.02468094f, 0.02855273f, 
        0.07047453f, 0.19731148f, -0.09357705f, -0.01598277f, 0.09127779f, 0.13125245f, -0.04610039f, 0.11877321f, 0.06207190f, -0.11493415f, 
        0.02744009f, -0.27941382f, 0.26761824f, 0.02693096f, 0.04989393f, -0.14338917f, 0.13469633f, -0.34746349f, 0.18296875f, -0.24287182f, 
        0.09656067f, 0.17026901f, -0.22124521f, 0.01505424f, -0.02981859f, 0.07923096f, -0.02304943f, -0.03777621f, -0.04702542f, 0.06250334f, 
        -0.10307397f, 0.07529210f, -0.12012388f, -0.00918523f, 0.16472465f, -0.04154598f, -0.00814179f, -0.21344756f, -0.14993410f, 0.02262465f, 
        -0.02721348f, 0.06484269f, -0.06224979f, 0.12546328f, 0.17345171f, 0.11880692f, -0.15712754f, 0.09505358f, 0.09713882f, 0.07587959f, 
        0.07086634f, -0.20287615f, 0.03295514f, -0.12504201f, 0.00234136f, -0.00049372f, 0.08115703f, -0.07053059f, 0.13148700f, -0.09124441f, 
        0.06169484f, -0.20118926f, -0.09956182f, 0.04286966f, -0.24739921f, -0.12000520f, 0.10510768f, 0.05256206f, -0.16904691f, -0.05914811f, 
        0.08751331f, -0.04322539f, -0.21300557f, -0.13978802f, 0.06695097f, -0.01445295f, 0.00302164f, -0.15648477f, -0.31021222f, -0.14214663f, 
        -0.02435001f, -0.11381705f, 0.12187964f, -0.12497661f, -0.10969092f, -0.03526532f, 0.18097651f, 0.19640556f, -0.07689350f, -0.06727964f, 
        0.04272463f, -0.11643758f, 0.09502272f, 0.07332691f, -0.02934050f, 0.21645255f, 0.00663340f, 0.12340232f, 0.11309394f, 0.12043554f, 
        0.12579997f, 0.31175449f, -0.04236949f, 0.13883218f, 0.06148267f, -0.13429940f, 0.11234777f, -0.11588980f, -0.02006085f, -0.14041786f, 
        0.09878807f, -0.24230149f, 0.21327837f, 0.07788058f, 0.04919159f, 0.12922692f, 0.10416140f, -0.05878054f, 0.11940735f, 0.07247557f, 
        -0.03898473f, 0.12588176f, 0.21339828f, -0.05228020f, -0.05585381f, 0.02784743f, -0.06722471f, -0.03841867f, -0.16081686f, 0.11804751f, 
        0.12436345f, 0.24804871f, 0.30786785f, 0.20371602f, 0.22310154f, -0.01328045f, 0.05419026f, 0.22444586f, -0.14489844f, -0.02586088f, 
        -0.13788037f, 0.19050419f, 0.03680421f, -0.12632512f, 0.01240315f, 0.10937210f, 0.11747224f, 0.11617807f, 0.11363082f, 0.01810836f, 
        -0.01859628f, -0.16122113f, 0.01409276f, 0.04273315f, 0.13696797f, 0.08940884f, 0.05466846f, 0.26168013f, -0.11297269f, 0.22310182f, 
        -0.28090829f, 0.09937144f, 0.17939501f, -0.08908445f, 0.03656352f, 0.41440979f, -0.35591832f, 0.08481605f, 0.01251174f, 0.03764581f, 
        -0.03431909f, -0.08029016f, 0.18469577f, 0.09228826f, 0.12217168f, -0.04009966f, 0.15203211f, 0.06319550f, -0.12869209f, 0.03859175f, 
        -0.05686890f, 0.06625368f, -0.03203570f, -0.10409618f, 0.04840481f, -0.08247107f, 0.05192035f, 0.21834585f, -0.06546882f, -0.36765635f, 
        0.26890716f, 0.31806731f, 0.10209668f, -0.18021742f, -0.08922917f, -0.05693945f, 0.47583577f, 0.02166247f, 0.21465716f, 0.28102085f, 
        -0.19021341f, 0.01109481f, 0.02777627f, 0.14940211f, -0.00923897f, 0.11515231f, -0.05114044f, -0.08989891f, -0.12340397f, 0.11709610f, 
        -0.06774920f, 0.13716257f, -0.03459164f, 0.09514751f, 0.11789536f, 0.11232910f, -0.17428292f, -0.12085581f, -0.02508936f, -0.02900233f, 
        0.26532841f, -0.07118071f, -0.39951447f, 0.03667878f, -0.03645925f, -0.34111169f, -0.33464032f, -0.15212120f, -0.31690362f, -0.17099983f, 
        -0.02171320f, -0.17015202f, -0.19223565f, -0.11975024f, -0.00208436f, 0.09425731f, -0.07888913f, -0.08950986f, -0.00428338f, -0.13490695f, 
        0.06296474f, 0.03665103f, 0.09442896f, -0.03889063f, -0.09974870f, 0.02242526f, 0.16116944f, -0.13373879f, 0.01562909f, 0.05988000f, 
        0.05548400f, -0.33197159f, 0.13606347f, -0.07085793f, 0.00810294f, 0.27148637f, -0.08236805f, 0.32752264f, -0.18894617f, -0.09076720f, 
        0.02954734f, 0.14201501f, 0.27503914f, 0.10199170f, -0.07431711f, 0.06212756f, 0.09455309f, -0.09175051f, 0.08697209f, -0.06993243f, 
        0.03491484f, -0.20561804f, -0.23980825f, 0.03174785f, -0.11885096f, 0.24845277f, 0.11413701f, -0.14432883f, 0.00435413f, -0.19976233f, 
        -0.11231502f, 0.31170079f, 0.11840658f, -0.02588827f, 0.03460890f, -0.24148507f, 0.06633042f, 0.08258578f, -0.24244779f, -0.15579122f, 
        -0.18044679f, 0.05598120f, -0.23225687f, 0.11906399f, -0.05793479f, 0.02155558f, 0.01217647f, 0.09841167f, 0.08863584f, 0.00418077f, 
        0.03736846f, -0.14588107f, 0.00692754f, -0.04612453f, -0.01610024f, -0.03369078f, 0.08608363f, -0.05006658f, 0.15981153f, 0.37148234f, 
        -0.17163329f, 0.19643733f, 0.36053425f, 0.07576301f, 0.06423280f, -0.02526907f, 0.04508309f, -0.00736140f, -0.13321631f, -0.09527970f, 
        0.09869987f, -0.27028197f, -0.08366159f, 0.00206149f, 0.12921099f, 0.14684102f, -0.09479508f, -0.08390608f, -0.03166775f, -0.00653687f, 
        -0.06341186f, 0.09737917f, 0.00743566f, 0.15412447f, -0.21209788f, -0.07710396f, 0.15886120f, 0.28885266f, -0.01161195f, -0.06351404f, 
        -0.18524317f, -0.18336192f, 0.28137806f, -0.03706038f, -0.05050509f, -0.23596092f, -0.17333114f, 0.15263632f, 0.26117080f, -0.26203454f, 
        -0.10985130f, 0.15344265f, 0.00563490f, -0.09962474f, 0.07969011f, 0.03859398f, -0.00654012f, -0.03795422f, 0.05227341f, 0.03135079f, 
        -0.03119723f, -0.26908109f, 0.11889337f, -0.03886768f, -0.02038107f, 0.07390011f, -0.09838353f, 0.14559364f, 0.05318106f, 0.10416505f, 
        -0.21459621f, 0.45296529f, -0.21585241f, 0.06032806f, -0.05084412f, 0.17155324f, 0.06538143f, 0.03343451f, -0.24826232f, 0.19927120f, 
        0.13920888f, -0.17488435f, 0.24779804f, -0.12425448f, 0.15762909f, -0.01443979f, -0.13382523f, 0.06601827f, -0.03046652f, 0.01669238f, 
        -0.08776721f, -0.12677398f, -0.02187935f, -0.08674114f, 0.05567886f, -0.02540741f, 0.25876525f, 0.09542793f, 0.09378568f, -0.21379527f, 
        -0.12382373f, 0.26432592f, 0.29603750f, -0.08389267f, 0.01486808f, -0.25085333f, -0.07324110f, -0.29312599f, -0.00053826f, 0.22290704f, 
        0.02078240f, -0.07911301f, 0.24060230f, -0.11599506f, 0.02452720f, 0.05270189f, 0.06567316f, 0.02539187f, 0.12383171f, -0.01206095f, 
        0.03069494f, -0.09105437f, 0.08713949f, 0.14276311f, 0.08189447f, -0.15904482f, 0.01999464f, 0.13393170f, -0.16235612f, 0.11344136f, 
        0.13272773f, 0.33766028f, -0.37879738f, 0.01132077f, 0.00413661f, 0.20328833f, -0.25510201f, 0.54617661f, -0.07623287f, 0.22924858f, 
        -0.22800724f, -0.22810479f, 0.16718553f, 0.00205890f, -0.10768397f, -0.05932014f, 0.14064746f, -0.12797526f, 0.14017433f, 0.02398020f, 
        -0.06385125f, 0.08702877f, -0.07931256f, 0.14768758f, -0.01742763f, -0.03737132f, 0.01958026f, 0.09179934f, 0.05529168f, 0.02233601f, 
        -0.15941578f, -0.75216591f, -0.48028213f, -0.19638410f, 0.03116361f, -0.30312923f, 0.11580990f, -0.39483398f, 0.24626338f, -0.03521227f, 
        0.16616760f, -0.08323642f, -0.01994710f, 0.00813149f, 0.04642851f, 0.11650677f, -0.08876668f, -0.04383773f, -0.17721371f, -0.12127426f, 
        0.05058177f, 0.04337243f, -0.14592046f, 0.09123289f, -0.18351196f, 0.00470321f, 0.12798122f, -0.43022215f, -0.03466401f, 0.09444719f, 
        0.21457206f, 0.09778782f, -0.37689325f, 0.15786821f, 0.13014527f, -0.11225036f, 0.12482633f, -0.28612852f, -0.19050474f, 0.07967228f, 
        0.09397630f, 0.14436260f, 0.17647301f, 0.10426398f, -0.05960932f, 0.04112031f, 0.09355547f, 0.16662033f, -0.02094730f, 0.06041472f, 
        -0.04073951f, -0.04652392f, -0.06694043f, 0.06821474f, -0.06999653f, 0.09425616f, 0.21530715f, 0.31103998f, 0.12893343f, 0.00061128f, 
        0.11384454f, -0.09431706f, 0.11740214f, 0.24887763f, 0.07710878f, 0.24148887f, 0.42885822f, 0.25916782f, 0.24355449f, -0.12985021f, 
        -0.12733956f, 0.14932247f, -0.00095723f, 0.05266017f, -0.14945354f, -0.11188964f, 0.08692256f, -0.12496866f, 0.01202138f, -0.10249706f, 
        0.07527401f, -0.01894687f, 0.05756520f, 0.17462596f, 0.00246282f, 0.10187974f, 0.00343242f, 0.12923032f, -0.01112579f, -0.07106763f, 
        0.24517812f, -0.09761488f, -0.04785339f, 0.07934646f, 0.01196981f, -0.37817293f, 0.12965938f, -0.26184866f, -0.08965730f, 0.06200083f, 
        0.12930435f, 0.09417436f, 0.19993237f, -0.11952277f, 0.01669766f, -0.08659989f, -0.02333545f, 0.02957609f, -0.05997293f, -0.09003580f, 
        0.02005327f, 0.19190961f, 0.06092951f, -0.03771940f, -0.14398108f, 0.13446997f, -0.10294246f, -0.16183944f, -0.03603831f, 0.22485626f, 
        0.38165927f, 0.46324623f, -0.03550782f, -0.02124398f, -0.01857169f, 0.11496162f, 0.39453050f, 0.05068747f, 0.07725406f, -0.14804202f, 
        -0.08725027f, -0.08587778f, 0.14893197f, 0.15261842f, 0.15721257f, -0.12370357f, -0.00182453f, 0.01515156f, -0.11908015f, -0.01657725f, 
        0.11310141f, 0.02080148f, -0.14677425f, 0.00981197f, 0.03075223f, -0.12924762f, -0.02451378f, -0.21095119f, -0.04247252f, -0.04846457f, 
        -0.11646236f, -0.24203448f, 0.07324762f, 0.28356957f, -0.12867817f, -0.22878076f, -0.07919031f, 0.07904802f, -0.08218430f, -0.29788241f, 
        -0.21793820f, 0.12867789f, -0.30328411f, 0.00786065f, -0.02210855f, -0.09343847f, 0.14217284f, -0.11606652f, -0.08766046f, -0.00793109f, 
        0.05345665f, -0.04880597f, 0.17571166f, 0.14136781f, -0.00775386f, -0.18827689f, 0.07881275f, 0.06551820f, -0.09716599f, 0.41669691f, 
        0.07014279f, -0.37475967f, -0.37121964f, -0.18548076f, 0.15012448f, 0.24609649f, -0.14654733f, 0.05856558f, -0.25578168f, 0.02660198f, 
        0.09032305f, 0.10408222f, -0.02579181f, -0.11703071f, 0.01291886f, 0.06392237f, 0.15636711f, -0.14708272f, -0.03949658f, 0.02403443f, 
        -0.08751925f, 0.12959689f, -0.00456294f, 0.04888286f, -0.10127445f, -0.11184327f, 0.07262663f, -0.08286268f, -0.01054651f, -0.03413445f, 
        -0.03570838f, -0.76957345f, 0.28541300f, -0.00032515f, -0.00712680f, -0.16982739f, 0.24801758f, -0.18780251f, -0.11324701f, -0.05169163f, 
        0.18133174f, -0.05686766f, 0.05022227f, -0.06430062f, 0.10460500f, 0.06217166f, -0.00710547f, -0.18175474f, 0.04912313f, 0.09265978f, 
        -0.09140943f, -0.15455900f, -0.00716343f, 0.13518921f, -0.03070664f, -0.12128489f, 0.12559319f, 0.10819784f, -0.06426250f, -0.01597127f, 
        -0.23078229f, 0.18305959f, -0.07099518f, -0.11463678f, 0.09855389f, -0.07655437f, 0.08563836f, -0.07584871f, -0.16648260f, -0.19252573f, 
        -0.07794261f, 0.09765104f, 0.00775198f, -0.02229203f, 0.04409180f, -0.08189342f, 0.10012365f, -0.02471561f, -0.12729138f, 0.10359789f, 
        0.06409717f, -0.06489343f, -0.11043390f, 0.12982540f, -0.15729536f, -0.10041029f, -0.13312806f, 0.42849720f, 0.11691068f, -0.26819697f, 
        0.34622869f, 0.22042242f, 0.35114864f, 0.22947001f, 0.11181781f, -0.32282230f, 0.32360741f, -0.30157131f, 0.08597139f, -0.17235883f, 
        -0.16825870f, 0.14199376f, 0.20577499f, 0.09167800f, 0.06685924f, 0.16406897f, -0.03238019f, 0.05425157f, -0.07445949f, -0.05012220f, 
        0.10140269f, -0.14811225f, -0.04274490f, 0.06978898f, 0.11761935f, -0.09680934f, -0.13655582f, -0.01278368f, -0.12440377f, 0.07723381f, 
        -0.36336654f, -0.34790653f, 0.15751725f, 0.18034488f, -0.03202138f, -0.37883773f, -0.17834839f, -0.46397337f, 0.06695690f, -0.15622714f, 
        -0.12868057f, 0.06503349f, -0.00853693f, -0.04503912f, 0.06932870f, -0.08317356f, 0.06953809f, 0.10086699f, 0.09771943f, -0.07882771f, 
        0.05965940f, 0.10253397f, -0.15922886f, 0.10292503f, 0.07784368f, -0.14342912f, -0.08449866f, 0.03373149f, 0.13150337f, 0.17661649f, 
        -0.27174982f, 0.31014320f, 0.45910823f, -0.08894262f, 0.01188772f, -0.34177345f, -0.41048455f, -0.28222504f, 0.22936141f, 0.03298462f, 
        0.16589992f, -0.14080943f, 0.11713241f, -0.13957778f, -0.01191357f, 0.09317346f, -0.08718312f, 0.16956617f, 0.05507893f, 0.09059992f, 
        -0.05428807f, 0.17642370f, 0.08275226f, 0.14592174f, 0.00235495f, -0.11780906f, -0.11754733f, -0.07269577f, 0.14979880f, 0.05682030f, 
        -0.22664304f, 0.16768503f, 0.35102430f, -0.04062083f, -0.14803134f, -0.06636409f, -0.10542578f, -0.04761507f, -0.06001084f, 0.06819968f, 
        0.17413004f, 0.19630127f, -0.04266672f, -0.15610392f, -0.11419839f, -0.08425261f, -0.10038900f, 0.17682593f, -0.09375402f, -0.11056252f, 
        0.06413594f, -0.07119372f, -0.08007498f, -0.20556167f, 0.03313246f, 0.16025963f, -0.06406113f, 0.08282848f, 0.05048589f, 0.37421259f, 
        0.09420150f, -0.27297071f, -0.22156733f, 0.13854082f, 0.05290654f, 0.02430846f, -0.16861041f, -0.21704157f, 0.13762641f, 0.15605699f, 
        0.12638856f, 0.20983604f, 0.02829640f, 0.08571455f, 0.06968808f, -0.13185689f, 0.06153128f, -0.02350757f, -0.03194122f, 0.07306650f, 
        -0.04996004f, 0.06354068f, -0.10717444f, -0.02315713f, -0.01678158f, 0.10525621f, -0.08207192f, -0.08571034f, 0.01449253f, 0.34411487f, 
        0.18524140f, 0.03241830f, 0.53287286f, 0.02991938f, -0.02139764f, -0.22846916f, -0.19580022f, -0.06009493f, -0.11449117f, 0.15766563f, 
        0.00097213f, 0.07465308f, -0.23159344f, 0.01749505f, -0.00904859f, -0.01025786f, 0.08836009f, -0.03770601f, 0.07158141f, 0.08292635f, 
        -0.06692079f, 0.07346452f, -0.02517802f, 0.12051626f, 0.01871514f, 0.02176805f, -0.01942417f, -0.19177601f, 0.10858627f, 0.35634738f, 
        -0.28011566f, -0.04179534f, 0.13762206f, -0.15304777f, -0.03702878f, 0.29977164f, -0.30661479f, -0.06145937f, 0.12547268f, -0.03582022f, 
        0.15154116f, 0.00542256f, -0.10786594f, -0.06154515f, -0.04152893f, 0.08649148f, -0.06434873f, -0.01046606f, -0.02550851f, -0.01063147f, 
        0.04329221f, 0.18890738f, -0.05070838f, -0.17873898f, 0.18736330f, -0.12900455f, -0.17432551f, 0.09210619f, -0.18199712f, -0.12298747f, 
        -0.26260102f, -0.12501110f, 0.19404615f, 0.08050352f, -0.10357336f, 0.04026707f, -0.10253520f, 0.28611872f, -0.17859451f, -0.13668801f, 
        -0.10134609f, -0.18830457f, 0.07244322f, -0.12045529f, 0.07737625f, -0.02549589f, -0.08514923f, -0.06749833f, -0.03742635f, -0.04024241f, 
        -0.00299288f, 0.04681031f, -0.04819366f, 0.04089347f, -0.03123534f, -0.12771811f, 0.04365661f, 0.11577755f, 0.14501546f, -0.18126722f, 
        0.22866465f, -0.06485271f, -0.24020882f, 0.03302337f, -0.14033800f, -0.36268488f, -0.17133439f, 0.00660746f, -0.29350728f, 0.06713773f, 
        -0.05964394f, -0.20809655f, 0.05838216f, 0.12281103f, -0.11718418f, -0.12115780f, -0.07263836f, -0.16259414f, -0.13306156f, -0.07783088f, 
        -0.02410366f, -0.15291387f, 0.02997277f, -0.03500553f, -0.20307159f, 0.19917808f, 0.11065008f, -0.10443244f, 0.15323861f, 0.05917921f, 
        0.20139284f, 0.03469588f, -0.52248102f, -0.06961779f, -0.08429641f, 0.01389144f, 0.00366194f, 0.01940097f, -0.20367615f, 0.06470285f, 
        0.01600968f, -0.05492870f, 0.07745802f, -0.09667636f, -0.02213428f, 0.14581713f, -0.18295386f, -0.09564494f, 0.15087378f, 0.11793059f, 
        -0.09918171f, -0.09877114f, 0.06755894f, -0.08128412f, -0.03531230f, 0.00687054f, 0.09674605f, 0.17848442f, 0.12233274f, -0.16696522f, 
        -0.22925325f, -0.17961207f, 0.36445174f, -0.10175556f, 0.13185892f, 0.46697044f, 0.01217430f, 0.02143763f, 0.00095748f, 0.19347124f, 
        0.08644117f, 0.09537806f, -0.11728141f, -0.06487714f, 0.07193667f, 0.16418533f, -0.02092786f, 0.06460378f, 0.06237864f, -0.06155914f, 
        0.02295252f, -0.01897162f, 0.09063152f, -0.07458276f, -0.15991977f, -0.09136482f, 0.21897534f, 0.00055868f, 0.11564357f, -0.25766033f, 
        -0.27853489f, -0.26248455f, 0.32969356f, 0.02521009f, 0.11576508f, 0.23458491f, -0.11515512f, 0.23873810f, -0.14644609f, -0.26829332f, 
        -0.05996992f, -0.10625100f, 0.10294618f, -0.14609466f, -0.10557785f, 0.02017997f, 0.10654364f, 0.05868118f, 0.02019268f, 0.04913342f, 
        0.03514620f, -0.17426839f, -0.18887149f, 0.06866731f, 0.04297921f, 0.06550913f, -0.24969579f, -0.01327565f, 0.00412277f, -0.18424010f, 
        0.22349793f, 0.09515142f, -0.53608316f, 0.01382696f, 0.11234923f, 0.18835017f, -0.22338620f, -0.03301761f, 0.09268099f, 0.06254900f, 
        -0.08410297f, -0.10059328f, -0.06814881f, 0.05259239f, -0.05326535f, -0.02527883f, -0.12211422f, 0.09244455f, 0.01358122f, 0.07492670f, 
        -0.12523358f, -0.12097573f, 0.10666286f, 0.05079312f, 0.12793824f, -0.05449334f, -0.08027893f, -0.04010480f, -0.06170815f, -0.03196448f, 
        0.37606061f, -0.15786123f, -0.18621625f, -0.03535225f, -0.13592769f, -0.03575592f, -0.11262088f, 0.08795072f, -0.13431658f, 0.01626206f, 
        0.08960041f, -0.01898555f, -0.25795022f, -0.01828829f, 0.05277303f, -0.04694566f, 0.03094208f, 0.06177234f, 0.01988214f, 0.05014305f, 
        0.02782144f, 0.07338716f, -0.08756866f, -0.13373843f, 0.03847151f, 0.06527404f, 0.02446954f, -0.19086900f, -0.08377025f, 0.33644789f, 
        0.13241726f, -0.28454161f, -0.17147955f, -0.08361821f, -0.06637442f, -0.20038338f, 0.31565684f, -0.13637279f, -0.00002553f, -0.04030428f, 
        -0.13461778f, -0.21862602f, 0.16372994f, 0.12807581f, -0.02860673f, 0.07866077f, -0.08370793f, 0.09401492f, -0.21794115f, -0.11600564f, 
        0.06471828f, -0.14326961f, -0.17245148f, 0.13784608f, -0.20840046f, -0.09809367f, -0.14316276f, 0.03085771f, -0.08916355f, 0.07009853f, 
        -0.25803435f, -0.08800515f, -0.44729379f, -0.15251558f, -0.02567279f, -0.11954718f, -0.58752298f, -0.24448074f, -0.06147816f, -0.00266915f, 
        -0.05466500f, -0.23100327f, 0.16694565f, 0.02605881f, 0.19108386f, 0.01071345f, 0.05857614f, -0.16667682f, 0.12168177f, -0.09935002f, 
        0.08924461f, -0.09640363f, -0.13133964f, -0.06140810f, 0.11703417f, -0.10301664f, 0.04251375f, -0.26324281f, 0.13953227f, 0.17106570f, 
        -0.11878505f, 0.29242262f, -0.36486366f, -0.09270117f, 0.17541659f, -0.33744916f, -0.06145195f, 0.14775066f, -0.01795947f, -0.08649752f, 
        -0.12554802f, 0.14691888f, -0.26159084f, -0.03005474f, 0.09469979f, 0.01448222f, 0.17217447f, -0.03399365f, 0.19123481f, -0.06695532f, 
        0.04551701f, 0.13170698f, 0.10065375f, -0.05743650f, 0.20579268f, 0.18362673f, -0.09691588f, 0.23280966f, -0.08792873f, 0.55925620f, 
        -0.20699486f, 0.02110747f, 0.07732487f, -0.19843468f, 0.09569133f, 0.01853358f, 0.03074905f, 0.11417042f, 0.17809770f, -0.01685373f, 
        -0.12186668f, 0.22171848f, -0.23008247f, 0.04359207f, 0.02719895f, -0.04042882f, -0.13725042f, 0.05622782f, 0.03289932f, 0.09238080f, 
        0.03946412f, 0.02269193f, 0.00168117f, -0.16529618f, -0.08960429f, -0.05295771f, -0.17890571f, 0.14183778f, 0.02939858f, 0.05847612f, 
        0.39923683f, 0.49233076f, 0.33630514f, 0.09992376f, 0.03253293f, 0.11526170f, 0.26899338f, 0.10570474f, 0.26553625f, 0.10130544f, 
        0.01883266f, 0.05977842f, 0.26215327f, -0.05730979f, -0.00524298f, -0.02721520f, 0.02508390f, -0.07568951f, -0.16609402f, 0.05105362f, 
        -0.01752615f, -0.01060315f, 0.01814079f, -0.12272217f, -0.16878289f, -0.16539469f, 0.07550473f, -0.22489789f, -0.10428318f, -0.20738813f, 
        -0.12410641f, 0.07329642f, -0.20052470f, -0.02064893f, -0.08908890f, 0.35878333f, 0.25074267f, 0.58166939f, -0.09181114f, 0.08630031f, 
        -0.18476138f, -0.20697254f, 0.08672956f, 0.08219220f, 0.11120548f, -0.15357743f, 0.13320087f, -0.10749457f, -0.11193084f, 0.02833940f, 
        -0.02983610f, 0.12912539f, -0.09673927f, -0.14070995f, 0.13527222f, 0.18139587f, -0.00723852f, 0.17176469f, 0.02005968f, -0.08409225f, 
        -0.03424973f, -0.18281950f, 0.51472473f, -0.37026232f, 0.01523529f, 0.16777319f, 0.53284830f, 0.16253622f, 0.36884865f, -0.09894382f, 
        0.09760256f, 0.25986084f, 0.02582321f, 0.12466180f, 0.08518727f, -0.12659180f, -0.03542538f, -0.09309020f, -0.13830803f, 0.13340025f, 
        -0.15896910f, 0.10712535f, 0.07798506f, 0.05171154f, -0.01302688f, 0.10735796f, -0.10922380f, -0.14840224f, -0.06024927f, -0.09772994f, 
        -0.14018062f, -0.94122028f, 0.40877438f, 0.01479902f, -0.10107824f, -0.03364953f, 0.03830047f, -0.10558201f, 0.14011903f, -0.11795208f, 
        0.10016613f, 0.05191662f, 0.00659233f, 0.08711731f, -0.06541201f, -0.07987583f, 0.06344897f, -0.06689219f, -0.11552828f, 0.00021409f, 
        0.04463688f, 0.10179076f, 0.11877071f, 0.08669915f, 0.08585983f, -0.13691065f, -0.08548557f, 0.31704181f, -0.18008894f, -0.18187749f, 
        -0.03331231f, 0.19991338f, 0.22585368f, -0.01870243f, -0.08618028f, 0.51690131f, -0.03073298f, 0.28519350f, -0.15846293f, -0.12619901f, 
        0.01266772f, 0.04643717f, 0.06454109f, 0.04136762f, 0.11312465f, -0.05920791f, 0.05659309f, -0.12595321f, 0.10744933f, -0.08698631f, 
        0.03337827f, -0.14593589f, 0.02167320f, 0.00974199f, 0.13867263f, 0.19375478f, 0.20782511f, 0.01253180f, -0.15556653f, -0.59139723f, 
        -0.23067579f, 0.00510059f, 0.21669173f, -0.17266952f, 0.07950674f, 0.00930182f, 0.16189529f, 0.16746208f, -0.18617457f, -0.09145941f, 
        -0.30992171f, -0.17220116f, 0.16529883f, -0.12119587f, -0.01453674f, 0.08889584f, 0.14278990f, -0.11494809f, 0.11468720f, -0.01736301f, 
        0.00739910f, -0.03563336f, -0.27411062f, -0.11804774f, -0.14522853f, 0.14603530f, 0.09293827f, -0.28618217f, 0.16459508f, -0.25726020f, 
        0.32588354f, 0.21793851f, -0.31338033f, -0.23571217f, 0.02005534f, 0.12662394f, -0.23560604f, 0.08731322f, -0.01882212f, 0.21171868f, 
        -0.13888961f, 0.08043728f, 0.09774347f, -0.09448720f, 0.04236918f, -0.11616345f, 0.08264825f, -0.12954301f, -0.26828954f, -0.09449329f, 
        0.00740406f, -0.06020932f, -0.19319354f, -0.11419890f, -0.15346177f, 0.15767902f, 0.07204342f, 0.02859920f, 0.01611181f, -0.17277467f, 
        0.00337479f, -0.30860132f, -0.20842746f, -0.15446199f, 0.05561316f, 0.30803275f, -0.33153394f, 0.10758131f, -0.14303857f, 0.18394203f, 
        0.05891263f, -0.30753306f, -0.00276405f, -0.13801666f, -0.07485180f, -0.06789379f, 0.07943884f, 0.10722770f, 0.08088769f, -0.10524556f, 
        0.10901232f, 0.21168937f, -0.09463043f, -0.06111603f, -0.02945213f, -0.01926149f, 0.17519505f, -0.07854359f, -0.01210089f, -0.30357489f, 
        -0.18245973f, -0.31696439f, 0.15617658f, 0.01624586f, 0.21239537f, 0.22876203f, -0.11885010f, -0.24670690f, -0.16778331f, 0.17882685f, 
        -0.18716364f, -0.20341851f, 0.23148692f, 0.07535068f, 0.12863071f, 0.15345344f, 0.09659373f, 0.14958097f, -0.09021363f, -0.01753339f, 
        0.05940784f, 0.02739500f, -0.08532324f, 0.14228505f, -0.07129510f, 0.06389469f, 0.05842148f, 0.20820408f, -0.07000980f, -0.36589989f, 
        0.21318237f, -0.38742918f, -0.14875667f, -0.07438219f, 0.01129436f, 0.24307019f, 0.05039549f, 0.26812959f, -0.02491020f, 0.14592126f, 
        -0.08490080f, 0.17749448f, -0.25760674f, 0.03797938f, 0.00025451f, 0.02106168f, -0.05178504f, 0.09891875f, 0.14455880f, -0.07485586f, 
        0.08351211f, 0.00142974f, 0.20551074f, 0.10753591f, -0.06655819f, 0.12422040f, -0.08639405f, -0.15751907f, 0.07562405f, 0.21169084f, 
        -0.17783585f, 0.15885206f, -0.04486898f, -0.13179643f, 0.05530008f, -0.14561640f, -0.04631821f, 0.19976117f, 0.28123897f, 0.11625870f, 
        -0.13706508f, -0.18612087f, 0.25098851f, 0.02087199f, -0.08413354f, -0.05306121f, -0.09136823f, -0.13718154f, -0.15121821f, -0.01237114f, 
        0.03034632f, -0.14235501f, -0.15017714f, -0.08700702f, -0.03113361f, 0.14025684f, -0.13485703f, 0.37828314f, 0.14319228f, 0.06264181f, 
        -0.20552862f, 0.33667892f, -0.22663718f, 0.16085961f, 0.13083340f, -0.27452645f, -0.07793552f, -0.11720557f, 0.11632712f, -0.14642635f, 
        0.19849551f, -0.26678196f, 0.25929031f, -0.06478050f, 0.14125989f, 0.17116767f, -0.07915477f, 0.08782351f, -0.02453532f, -0.06365231f, 
        0.01811120f, 0.11518835f, -0.12729852f, 0.15211257f, 0.15122096f, -0.11658901f, -0.03982488f, 0.18812239f, -0.00145024f, 0.04032326f, 
        0.07997143f, 0.08086950f, -0.13133042f, 0.19783461f, 0.05080647f, -0.16598262f, -0.03395287f, -0.05176728f, 0.21234609f, -0.03458658f, 
        -0.04745724f, 0.02659161f, 0.32970089f, -0.03389120f, -0.10174322f, -0.01082138f, -0.06617120f, -0.19820763f, -0.26549232f, -0.12256444f, 
        0.12028540f, -0.05238424f, -0.07950828f, 0.12855637f, -0.15591276f, -0.01468699f, -0.19722322f, -0.34562716f, -0.00943639f, -0.10477942f, 
        0.43266201f, 0.24036783f, 0.07491428f, 0.27734169f, 0.05749650f, 0.20704450f, -0.19369397f, -0.10187751f, 0.09834061f, -0.23044816f, 
        -0.11670443f, -0.00864028f, -0.11280244f, -0.06103257f, -0.13286981f, -0.03377786f, 0.06754114f, -0.10055312f, -0.10362606f, 0.06806029f, 
        -0.01176273f, 0.08563179f, 0.11750996f, -0.04503840f, -0.03748243f, -0.27151215f, 0.04319618f, 0.02986346f, -0.01084581f, 0.36925137f, 
        0.21912494f, -0.21225284f, 0.66633034f, 0.00954348f, 0.00984047f, -0.14496297f, 0.35079706f, -0.27130643f, 0.24233170f, -0.09211739f, 
        -0.03135415f, -0.05787619f, 0.29099563f, -0.05190915f, -0.02160102f, -0.02953205f, -0.00985984f, 0.08414479f, 0.16381055f, 0.04488255f, 
        -0.00009213f, -0.21575762f, -0.03271498f, 0.10188348f, 0.00798384f, -0.11927375f, 0.00609682f, -0.13056718f, 0.13028757f, -0.01093424f, 
        0.19312504f, 0.47475633f, 0.16412015f, -0.05515536f, 0.08591186f, 0.09266081f, 0.29400617f, 0.25267008f, 0.20005606f, -0.14234725f, 
        -0.26426896f, 0.05142807f, 0.07831720f, 0.04074660f, 0.08821263f, 0.09345451f, 0.02469438f, 0.02707730f, 0.09642305f, 0.15193516f, 
        -0.05585289f, -0.18794197f, 0.01969380f, -0.05192469f, -0.04926826f, -0.21015610f, -0.15243015f, 0.04679196f, -0.13531242f, -0.14845054f, 
        -0.27531439f, 0.06091105f, 0.19945040f, -0.24771926f, 0.08119324f, 0.12602353f, -0.02534522f, 0.38022944f, 0.04476818f, -0.20169277f, 
        -0.18601532f, -0.12673216f, 0.02540216f, 0.16085158f, 0.06466789f, 0.17117971f, -0.04421989f, 0.13152421f, -0.02162511f, -0.12286615f, 
        0.11190461f, -0.04478690f, -0.20970607f, 0.18827569f, 0.08177543f, 0.08932257f, -0.04095647f, 0.11398001f, -0.11424313f, -0.29329950f, 
        -0.00309433f, -0.46268868f, 0.40261212f, 0.15983380f, -0.04376802f, 0.03153000f, -0.29509118f, -0.10903417f, 0.24462980f, -0.11903299f, 
        -0.21628031f, -0.00383634f, 0.00842537f, -0.10897654f, 0.03692272f, -0.14718828f, 0.03571616f, 0.06716762f, 0.07167928f, -0.06566157f, 
        0.08955707f, -0.08308356f, -0.05422099f, 0.16251677f, 0.14715834f, 0.08380961f, -0.24445696f, -0.39586213f, 0.04518960f, -0.05622239f, 
        -0.21434179f, -0.07299566f, -0.02607192f, -0.13992976f, 0.08907225f, 0.13200812f, -0.43693995f, 0.25126225f, -0.14558345f, 0.22723573f, 
        -0.06469446f, -0.06803598f, -0.17610013f, -0.14291957f, 0.12366468f, 0.08746551f, -0.04439324f, 0.14222506f, 0.10160706f, -0.04164987f, 
        -0.02860560f, 0.01284463f, -0.01603259f, 0.15474345f, -0.07845780f, 0.24627648f, 0.03422492f, 0.12020800f, -0.13169542f, -0.40704438f, 
        -0.23308311f, -0.12800983f, 0.04082849f, 0.02320284f, -0.03264791f, -0.20864232f, -0.09534905f, 0.07605269f, -0.03424632f, -0.15293588f, 
        0.13642335f, 0.10768014f, -0.31198254f, -0.02685334f, -0.06875540f, 0.04499977f, -0.07733018f, 0.01073307f, 0.10297761f, 0.03707333f, 
        -0.03596077f, -0.04984755f, 0.17954403f, -0.11788730f, -0.01223445f, -0.09922956f, -0.20866719f, -0.46292207f, -0.02688695f, -0.07986128f, 
        -0.04002406f, -0.12811737f, -0.00699852f, 0.16928126f, 0.00443533f, -0.09070691f, 0.07553447f, -0.08739824f, 0.36047447f, 0.14588052f, 
        -0.23203790f, -0.06991086f, -0.09486005f, 0.14808691f, -0.11556288f, 0.08809468f, -0.06454212f, 0.12493001f, 0.06772450f, 0.09192657f, 
        -0.02775990f, -0.10809698f, -0.07207282f, 0.04927011f, 0.14422259f, -0.07932319f, -0.12652758f, 0.23001514f, -0.14605513f, -0.27630267f, 
        0.09255467f, -0.12186453f, -0.23962672f, 0.08442440f, 0.00091683f, 0.21616039f, 0.34372449f, 0.21684232f, 0.12200199f, -0.17909567f, 
        -0.21757460f, 0.08176830f, 0.20422529f, -0.08550829f, -0.12434184f, -0.08005277f, 0.04476077f, -0.10001738f, -0.12790175f, -0.14268805f, 
        0.14794831f, -0.06295136f, -0.20229901f, 0.05027029f, -0.10267238f, -0.08945566f, -0.07772323f, 0.01253755f, 0.07223855f, 0.02632375f, 
        0.23243916f, -0.24058101f, -0.30613151f, 0.18586420f, 0.16703387f, -0.04404875f, 0.43836954f, 0.01272540f, 0.02534471f, 0.05492084f, 
        -0.02961323f, 0.02185762f, -0.03497308f, 0.03808982f, -0.04029504f, 0.12489774f, 0.12966484f, -0.03149198f, 0.15305847f, 0.02809065f, 
        -0.03734829f, -0.18501243f, -0.09967846f, -0.09562944f, -0.03675226f, 0.03885080f, 0.01220180f, 0.05261816f, 0.05467596f, -0.05116713f, 
        -0.20684166f, -0.56111693f, -0.71078312f, 0.08364061f, -0.04287904f, -0.09390303f, 0.05926390f, -0.00806696f, 0.13633156f, -0.04300023f, 
        0.19080290f, -0.00115782f, -0.04705270f, -0.00464508f, 0.10998635f, -0.00193918f, -0.07404374f, -0.09459448f, -0.08248487f, 0.03321274f, 
        -0.10520624f, 0.22031419f, -0.07883257f, 0.12184004f, -0.07468656f, 0.18373537f, -0.00053142f, -0.09276848f, -0.09153194f, -0.04857484f, 
        -0.11984238f, 0.20906608f, 0.03742176f, -0.13225603f, -0.17029694f, 0.30548909f, 0.21544410f, 0.51180005f, -0.02149317f, 0.05390728f, 
        -0.08920857f, -0.01180139f, -0.30939049f, -0.12276490f, 0.08976023f, -0.01121658f, -0.16746114f, -0.11184815f, 0.04660782f, -0.02224391f, 
        -0.13204500f, -0.16779812f, -0.25518245f, -0.20127699f, 0.14599730f, -0.11169930f, 0.03585190f, 0.03660283f, 0.04857954f, -0.01170529f, 
        0.03891065f, 0.47446916f, 0.08438452f, 0.30106547f, -0.01781909f, 0.07514515f, 0.03300247f, -0.00442189f, -0.16223563f, -0.02013886f, 
        0.04036766f, 0.07979675f, 0.10057463f, 0.06081027f, 0.14506455f, 0.16142756f, -0.08960143f, -0.02209689f, 0.10790047f, -0.07326787f, 
        0.04907716f, -0.21451716f, -0.09974429f, -0.09205834f, -0.07585326f, -0.09339198f, 0.21064149f, 0.12870830f, 0.00158513f, 0.37993714f, 
        -0.36825055f, -0.18995772f, 0.24227799f, -0.02914684f, 0.07304390f, 0.09960456f, -0.46828043f, -0.03452809f, -0.17853075f, -0.05761989f, 
        0.01932083f, 0.19941555f, 0.05329844f, 0.03597501f, -0.07104740f, 0.00683234f, -0.10022292f, 0.10170426f, -0.03228114f, 0.06524723f, 
        -0.06163489f, 0.18939283f, 0.08039171f, 0.05088482f, 0.09630770f, 0.15002204f, 0.19834834f, -0.10989845f, -0.10155491f, -0.24028865f, 
        0.18226169f, 0.03877992f, 0.04675730f, -0.20364867f, -0.17255895f, -0.09790656f, -0.21805267f, -0.14697179f, -0.39708731f, 0.13605343f, 
        0.07944256f, -0.29886556f, 0.18543632f, 0.01018953f, 0.10872997f, -0.09805616f, -0.13107634f, -0.15480590f, 0.13965258f, 0.00615596f, 
        0.06034674f, 0.09724386f, -0.05061872f, -0.06480046f, -0.18858862f, 0.10781432f, 0.15071222f, -0.08766759f, 0.09425893f, -0.17799754f, 
        -0.20760429f, -0.63678354f, -0.13484105f, -0.10165136f, 0.01877525f, -0.19401242f, -0.12244889f, -0.10847671f, -0.00863142f, 0.04629140f, 
        -0.12439334f, 0.00353703f, -0.13737060f, -0.07161869f, 0.01044695f, -0.06282207f, 0.00205079f, 0.13170075f, 0.08860588f, 0.10875264f, 
        0.00776678f, 0.07081245f, 0.25579453f, -0.01454642f, -0.14723514f, -0.08278103f, 0.12423630f, 0.20002741f, 0.12289044f, 0.01863468f, 
        -0.29026377f, 0.36656910f, 0.05314089f, 0.11960047f, 0.24061351f, 0.25672626f, -0.34161884f, 0.40675214f, -0.18300313f, 0.00673029f, 
        -0.18826979f, 0.08265796f, -0.10500246f, -0.04075217f, 0.00277223f, 0.11631375f, 0.15209194f, 0.05164254f, 0.05146350f, 0.01879827f, 
        -0.04582001f, 0.07252643f, -0.01826267f, -0.05271309f, 0.22858731f, 0.09637486f, 0.08677392f, -0.14715396f, -0.05519315f, -0.22340302f, 
        -0.11752424f, -0.22644523f, -0.48165554f, 0.05651052f, 0.02337164f, -0.29821643f, -0.24238540f, -0.43011361f, -0.15314347f, 0.26025242f, 
        0.09196590f, -0.13161704f, 0.08436891f, 0.07010549f, 0.01497982f, 0.06527704f, -0.01087651f, 0.02702807f, -0.07278454f, -0.05591161f, 
        0.01996201f, 0.09294716f, 0.06703871f, 0.10721384f, -0.09744675f, 0.05888052f, 0.19632706f, -0.00879101f, -0.11901622f, 0.31749892f, 
        -0.16990830f, -0.39962384f, -0.11422034f, 0.13854009f, 0.02286009f, 0.15610290f, 0.19615321f, 0.27026185f, -0.05338393f, 0.04729183f, 
        0.18158549f, -0.23362525f, -0.13205916f, 0.04164695f, 0.11316974f, -0.05336628f, 0.09088226f, -0.05531076f, 0.01609321f, -0.02617200f, 
        0.05995850f, -0.12776965f, 0.20208344f, 0.11670595f, 0.10650438f, 0.01721074f, -0.08615413f, 0.15700869f, -0.07898377f, -0.33214641f, 
        0.14417957f, 0.06657811f, 0.20628262f, -0.02434731f, -0.04041712f, 0.46860105f, 0.11187655f, 0.53322655f, 0.16683869f, -0.15351562f, 
        0.14426570f, 0.10212534f, 0.07283726f, 0.10845544f, -0.01180499f, -0.09189761f, 0.09008741f, -0.02816059f, 0.08945476f, 0.04582124f, 
        -0.05300021f, -0.09320626f, 0.02801250f, 0.04662055f, -0.09471138f, 0.09346880f, -0.04212128f, -0.07474957f, 0.05826380f, -0.34814250f, 
        0.30500045f, 0.54021281f, -0.45962653f, -0.10719367f, 0.06437156f, 0.19690181f, 0.13008235f, 0.27973393f, -0.05642623f, -0.09018429f, 
        -0.17835952f, -0.21753518f, 0.26825526f, 0.08210617f, 0.05342613f, 0.06973903f, 0.01758547f, -0.12439935f, -0.05113456f, -0.00763844f, 
        0.03405806f, -0.12861459f, -0.13427261f, 0.18789406f, 0.19307294f, -0.13511227f, 0.13678138f, 0.30031937f, -0.17577372f, -0.05179544f, 
        -0.07358854f, 0.31838399f, -0.12068704f, 0.01829070f, 0.12809971f, -0.31010818f, -0.02780980f, 0.08941121f, -0.08713116f, 0.19789094f, 
        0.26405108f, 0.22545724f, 0.12687775f, -0.06164228f, 0.09602483f, -0.01910339f, 0.10132308f, -0.04619277f, -0.08843140f, 0.15756072f, 
        -0.15405467f, 0.06845532f, 0.06580870f, -0.17132086f, -0.06242691f, -0.06173679f, -0.09864019f, -0.32579672f, -0.03383356f, 0.29113284f, 
        0.34139189f, 0.21645252f, -0.08152092f, 0.15575878f, -0.03594619f, 0.12131687f, -0.19063653f, -0.09476185f, -0.20199248f, -0.02403625f, 
        -0.00163200f, 0.07595959f, -0.12022200f, 0.10408027f, 0.08577761f, -0.13723233f, 0.06776367f, 0.13162372f, 0.09584875f, -0.02957197f, 
        0.01928789f, 0.00192899f, 0.14873497f, -0.08183255f, -0.05390388f, 0.12835217f, 0.07921953f, -0.14647852f, -0.11234567f, -0.29519427f, 
        -0.30517632f, 0.07218052f, 0.04863069f, -0.03317861f, 0.08112044f, -0.37207100f, 0.00330891f, -0.19098823f, -0.10948220f, -0.15680869f, 
        0.14426303f, -0.00615527f, 0.04554195f, -0.05898591f, 0.20307873f, 0.07944024f, 0.09902585f, -0.13043699f, -0.14561588f, -0.06950171f, 
        -0.09635708f, -0.25721627f, -0.08584491f, 0.09288394f, -0.12599587f, 0.01418031f, -0.06722264f, 0.02138539f, 0.08985166f, 0.29260778f, 
        0.06214236f, -0.29579923f, -0.05464907f, 0.00026373f, -0.13258421f, -0.34944630f, -0.00533423f, -0.34032577f, 0.07427183f, -0.09877244f, 
        0.03807300f, -0.10995010f, -0.05870749f, 0.14741042f, 0.08903425f, -0.14332695f, 0.06993486f, 0.06464043f, -0.00862928f, 0.08576051f, 
        -0.10214519f, 0.07316744f, -0.11035855f, 0.08166812f, -0.05773344f, -0.04693615f, -0.05760938f, -0.29400295f, 0.12974183f, 0.36973718f, 
        0.33203563f, 0.00537763f, -0.15505004f, 0.06375114f, -0.16984467f, 0.00121470f, 0.26052532f, -0.27694619f, 0.24876702f, -0.21530519f, 
        -0.00682616f, -0.14317490f, 0.21838510f, 0.12260637f, 0.03831884f, -0.03029330f, -0.00971029f, 0.03820405f, 0.01932513f, -0.00753241f, 
        -0.07516427f, -0.21076961f, -0.05577852f, -0.00305989f, -0.09965102f, -0.16326229f, 0.10436248f, -0.05460501f, 0.08836096f, -0.11539092f, 
        0.03729272f, 0.07711430f, -0.17484389f, 0.01381748f, 0.16138430f, 0.42649588f, -0.05005315f, 0.35394990f, -0.13648443f, 0.04599813f, 
        0.26695079f, 0.12736516f, -0.07148090f, -0.15750979f, 0.00249840f, 0.16289738f, 0.02320298f, -0.05536763f, 0.11606373f, -0.07541277f, 
        0.09251942f, 0.05341965f, 0.13697179f, 0.05579497f, 0.18638216f, 0.01788410f, -0.14888340f, 0.06499909f, -0.08420839f, -0.25663456f, 
        -0.36643696f, 0.22444557f, 0.22227375f, -0.00422318f, -0.18370087f, 0.06088201f, -0.51198184f, 0.24616262f, -0.12742639f, 0.20645288f, 
        0.05775086f, 0.02302566f, -0.21318088f, 0.07914577f, 0.05230834f, -0.03199252f, -0.09764906f, -0.15550631f, -0.04205149f, -0.00264983f, 
        -0.06725803f, 0.24269433f, 0.25011393f, -0.11760002f, 0.19862171f, -0.00956658f, 0.14985728f, 0.11834688f, 0.02611207f, 0.08525549f, 
        -0.12752251f, -0.00238368f, 0.39564967f, -0.26221851f, -0.02377283f, 0.11104150f, -0.21481675f, -0.06062682f, -0.00761883f, -0.00155853f, 
        0.21558192f, 0.01373301f, 0.00109048f, 0.13641022f, 0.05197304f, 0.14389369f, -0.05846276f, 0.00280504f, -0.09652934f, -0.03226257f, 
        0.03539858f, 0.17665251f, 0.13984141f, 0.00089259f, 0.22406526f, -0.04384903f, -0.10890628f, 0.05203327f, 0.18003605f, 0.14414378f, 
        -0.09387696f, -0.26315784f, 0.16743740f, 0.08876937f, -0.10076132f, -0.05741033f, 0.18541889f, -0.14628413f, 0.05177235f, -0.04028577f, 
        -0.08695564f, -0.23871765f, 0.20034812f, -0.05905889f, 0.14353164f, 0.08557446f, 0.13180780f, 0.06031843f, 0.14247270f, -0.06990658f, 
        -0.09638051f, -0.12981683f, -0.28199959f, -0.16586956f, -0.03260271f, 0.14687625f, -0.13235499f, -0.11847346f, -0.14446567f, -0.36054459f, 
        -0.13084270f, -0.14004464f, -0.53219056f, 0.12418592f, -0.07701720f, 0.24261074f, -0.04765938f, 0.16269697f, -0.01723541f, 0.00170843f, 
        0.26276058f, 0.04998359f, -0.28231129f, -0.12253096f, 0.04457174f, -0.05441803f, -0.09180745f, -0.03998880f, 0.03130092f, 0.05298380f, 
        -0.11666116f, 0.04267487f, 0.07176954f, 0.02375971f, 0.07187052f, 0.18782051f, 0.22207844f, 0.32943946f, -0.05808242f, -0.29016098f, 
        0.20818311f, 0.13215168f, 0.04477934f, 0.07745181f, -0.01010763f, 0.15304397f, 0.46791101f, 0.09702618f, 0.07428329f, 0.20160829f, 
        0.15157987f, 0.10752083f, -0.09213762f, 0.07406414f, 0.12520386f, -0.08333619f, 0.07448168f, -0.04849209f, 0.16159828f, -0.11427496f, 
        0.15213643f, 0.03725678f, -0.11636187f, 0.07039054f, -0.12746400f, 0.08396541f, -0.11819671f, 0.08008915f, 0.11839219f, -0.07736748f, 
        -0.52109307f, -0.48653665f, 0.24641691f, 0.00432968f, -0.02756910f, -0.01998393f, 0.00097897f, -0.19515689f, 0.30032423f, -0.06183348f, 
        -0.15266462f, 0.12085674f, -0.10059007f, -0.04843741f, -0.08029421f, 0.12110105f, -0.10119211f, -0.07902704f, 0.10389952f, -0.04900621f, 
        0.03546604f, 0.05362703f, -0.01342245f, 0.11822708f, 0.03198227f, 0.06075319f, -0.14328182f, -0.10550096f, 0.09756719f, 0.01799142f, 
        0.22701217f, 0.68822807f, -0.46818489f, 0.13146266f, 0.01992357f, 0.21631986f, 0.17826867f, 0.24314848f, -0.00235718f, 0.01667608f, 
        0.02430038f, -0.27216533f, 0.26419821f, -0.02383186f, -0.08139773f, -0.00790684f, 0.01593156f, -0.11248402f, 0.09313665f, 0.07749146f, 
        -0.08940765f, 0.01515376f, -0.17479013f, -0.00487316f, 0.05799503f, -0.02898642f, 0.15203166f, -0.12323558f, -0.11019234f, -0.19698696f, 
        0.17434061f, 0.35451573f, 0.43297741f, 0.29334849f, -0.10945832f, -0.24679169f, 0.16737786f, 0.04836469f, -0.05249916f, -0.01743491f, 
        0.11347344f, 0.13967706f, -0.08066826f, -0.12994827f, 0.08351896f, -0.01333899f, 0.05096739f, -0.15810536f, -0.00830817f, 0.01995348f, 
        -0.06120219f, -0.07424096f, 0.15328628f, -0.05116624f, -0.14388330f, 0.02864180f, 0.21219847f, -0.14683081f, 0.02799873f, -0.06173521f, 
        0.04743011f, 0.04490146f, 0.37122473f, -0.14486396f, 0.06991518f, -0.07516635f, 0.20100136f, 0.27029061f, 0.32534602f, -0.04547144f, 
        0.07037535f, 0.10068142f, -0.15570484f, -0.04576872f, 0.02256548f, 0.07964043f, -0.00642224f, -0.09955743f, 0.08918809f, -0.02880617f, 
        -0.10541064f, -0.16852921f, -0.09471676f, -0.13981672f, -0.21501473f, -0.10463536f, -0.11475840f, 0.15306638f, 0.04539081f, -0.05708208f, 
        0.03317638f, 0.23993823f, 0.25006273f, -0.01386747f, 0.12043732f, -0.25257099f, 0.35877001f, -0.43014169f, -0.10189237f, -0.04113685f, 
        -0.18551663f, -0.14737497f, -0.02483748f, -0.03321595f, -0.07611001f, 0.12335937f, -0.06651815f, -0.13620149f, -0.10239247f, -0.06803390f, 
        -0.01851876f, 0.14143091f, -0.09124677f, -0.22028020f, -0.05752135f, -0.02337197f, -0.03285646f, 0.05816541f, -0.09478922f, -0.09039658f, 
        0.12810092f, 0.48826629f, 0.04496631f, 0.23346759f, 0.00331816f, 0.16695210f, -0.13865919f, 0.41216692f, 0.09144665f, 0.24959683f, 
        -0.25908118f, -0.05092377f, 0.27716354f, 0.05824082f, 0.11654200f, -0.09745610f, 0.12822156f, -0.18030803f, 0.17201039f, -0.04950475f, 
        -0.02876394f, -0.09126117f, -0.13709959f, 0.06549170f, -0.24895558f, 0.20095575f, 0.24228384f, 0.07040890f, 0.12178732f, -0.42844495f, 
        -0.11572989f, 0.43357846f, -0.31962842f, 0.10950176f, 0.08170768f, -0.06762390f, -0.11669776f, -0.14386016f, -0.09262396f, 0.17121300f, 
        0.04112853f, 0.00481359f, -0.16232099f, -0.10951687f, 0.02111743f, 0.09736209f, -0.16000387f, 0.06917930f, 0.15640147f, 0.05551704f, 
        0.05114738f, 0.12662305f, 0.23166090f, -0.12486868f, 0.02541507f, 0.11529876f, 0.11929166f, -0.09104711f, -0.13112622f, -0.05872829f, 
        -0.03540165f, 0.10566837f, 0.24452356f, 0.07576467f, 0.11785919f, 0.19537260f, 0.13686974f, 0.61608523f, 0.06901506f, 0.12604168f, 
        -0.13952799f, -0.03343346f, -0.01605541f, -0.07189081f, 0.02406624f, 0.02813996f, 0.05114360f, -0.21669376f, 0.06431209f, 0.06358348f, 
        -0.09073974f, -0.08443164f, -0.01438804f, -0.04419837f, -0.06455695f, -0.14867644f, 0.04935155f, -0.11592340f, -0.12788430f, -0.32832697f, 
        0.05316945f, -0.12762642f, -0.32553706f, 0.02075270f, 0.15584314f, 0.28415653f, -0.26004541f, 0.39891341f, -0.03889259f, 0.10023748f, 
        -0.21907839f, -0.11542100f, -0.06786059f, 0.02775886f, -0.12574740f, 0.14926288f, -0.01832667f, -0.04721076f, 0.14131656f, -0.08819645f, 
        0.10425367f, 0.15653151f, -0.04866155f, 0.16466752f, 0.17016837f, -0.08297884f, -0.05306517f, 0.24542411f, -0.16155750f, -0.24017863f, 
        0.28786454f, 0.28026876f, -0.17986666f, 0.21841259f, -0.13403125f, 0.16828112f, -0.09902711f, 0.15833503f, -0.05424460f, -0.16909197f, 
        0.08240683f, -0.21480913f, -0.13058053f, -0.02103532f, -0.01525608f, 0.07003791f, -0.11187783f, 0.18692300f, 0.04116383f, -0.06253603f, 
        -0.04773848f, -0.17702056f, 0.05464709f, -0.00967774f, -0.12473537f, -0.05836572f, 0.05603452f, 0.39964521f, 0.14863171f, -0.39139101f, 
        -0.23783378f, -0.15590927f, -0.20826219f, -0.21510763f, -0.10635989f, -0.30417982f, 0.01300804f, -0.34166479f, -0.00735152f, -0.28039277f, 
        0.26227584f, -0.01718841f, 0.15302828f, -0.09538785f, 0.13125362f, 0.08003899f, 0.05464886f, -0.10925446f, 0.02825982f, -0.04493285f, 
        -0.01245864f, -0.14202382f, 0.06123934f, 0.05978587f, -0.12975791f, -0.13657939f, -0.13286829f, -0.42988557f, -0.07533843f, 0.30545178f, 
        -0.01187448f, 0.27142870f, 0.15018485f, 0.29884174f, 0.06235325f, -0.00529210f, 0.28148931f, 0.01639729f, 0.03688334f, -0.01004869f, 
        -0.01538130f, -0.01993029f, -0.23739484f, -0.01454621f, -0.03638354f, -0.03416554f, -0.01161272f, -0.05276580f, 0.07665638f, 0.06712963f, 
        0.01961899f, -0.04662089f, -0.14214213f, -0.05841786f, -0.11475325f, 0.14450303f, -0.10521299f, 0.03740298f, -0.02251187f, 0.39192656f, 
        -0.11848073f, -0.34878749f, -0.51311874f, 0.14397374f, -0.15312950f, 0.30302918f, -0.20259956f, -0.11364777f, 0.11913601f, -0.05300657f, 
        0.04801492f, -0.19549860f, -0.00063386f, 0.03636139f, -0.07341094f, -0.01885764f, -0.16352296f, 0.01800799f, 0.02232680f, -0.05598173f, 
        0.02983482f, -0.03016277f, 0.00902170f, 0.11881645f, 0.09970868f, 0.06117294f, -0.03045011f, -0.20186403f, -0.09610813f, 0.11674891f, 
        0.22557099f, -0.54150742f, -0.45878106f, -0.03831369f, 0.05899174f, -0.19359174f, 0.03090196f, -0.34961262f, -0.21980871f, 0.02308532f, 
        0.02125580f, 0.08600760f, 0.12184348f, 0.11337234f, 0.03750480f, 0.03036909f, 0.10182063f, -0.12939529f, -0.11185872f, 0.04337543f, 
        -0.06936859f, -0.00911998f, -0.12389839f, 0.02386706f, -0.08315320f, 0.18149123f, 0.00656311f, -0.10152523f, -0.15883240f, -0.28492165f, 
        0.31948376f, -0.28598660f, -0.14855963f, 0.22603281f, 0.06962118f, 0.04825709f, 0.04647151f, -0.09028965f, 0.24515820f, 0.07670137f, 
        -0.07173400f, -0.08375011f, 0.27150786f, -0.11483137f, -0.06830377f, -0.08006794f, 0.13465448f, 0.14434265f, 0.11645180f, 0.08431505f, 
        0.08517704f, -0.12996285f, 0.14892057f, 0.09077949f, -0.19793066f, 0.01093514f, 0.06245104f, -0.22932191f, 0.00780886f, -0.38433009f, 
        -0.24553916f, 0.37829894f, -0.05549657f, -0.09320923f, 0.02949591f, 0.30614153f, 0.00501571f, 0.46089128f, -0.30917531f, 0.03681126f, 
        0.19453500f, 0.10424146f, -0.10417511f, 0.05562665f, 0.09968127f, -0.04437537f, 0.09515259f, -0.08478822f, 0.06067155f, -0.11663990f, 
        0.09133130f, -0.00831236f, 0.06607145f, -0.15364355f, 0.13913456f, 0.05896313f, 0.11779323f, -0.11951520f, -0.14252426f, -0.18470143f, 
        0.11284080f, 0.03849147f, 0.34739825f, -0.11200581f, 0.06677148f, -0.13931967f, 0.28105441f, 0.01129900f, -0.05754212f, -0.20452595f, 
        -0.02907414f, -0.08696241f, 0.14099100f, 0.11425844f, 0.12111174f, -0.02185769f, -0.01904566f, -0.16526517f, -0.01290207f, 0.07914489f, 
        0.00963517f, -0.16472399f, -0.19763038f, 0.14706644f, 0.18583959f, -0.17149106f, 0.00405620f, 0.30722475f, -0.17760177f, 0.37589544f, 
        -0.17728391f, -0.56830436f, -0.24401228f, 0.07389312f, 0.07323132f, -0.21221431f, 0.03940978f, -0.33652994f, -0.22097239f, -0.12644662f, 
        0.11451509f, -0.14227016f, 0.01228268f, 0.11966111f, 0.10330530f, 0.08405770f, -0.00388076f, -0.12648100f, -0.15901953f, 0.09780206f, 
        -0.13538706f, -0.05063539f, 0.15592255f, 0.16593768f, -0.00788353f, -0.05067585f, 0.15082814f, 0.20409410f, 0.12090075f, 0.28827530f, 
        0.35055616f, -0.01948747f, -0.26580647f, -0.24810234f, 0.01439900f, 0.12672894f, 0.16809379f, -0.05173628f, -0.24213220f, -0.10125241f, 
        0.16688116f, 0.13375957f, -0.15492003f, 0.08715696f, 0.11170588f, -0.02389275f, 0.12231590f, 0.19649239f, -0.09907847f, 0.01426599f, 
        -0.02168447f, 0.17347999f, 0.11701117f, -0.05120984f, 0.00726022f, 0.14231093f, 0.07489531f, -0.21884075f, -0.01829146f, -0.25652510f, 
        0.30283657f, -0.00936360f, 0.47215140f, -0.07449258f, -0.04234979f, -0.07476246f, 0.10652147f, -0.31657591f, 0.41943952f, -0.01942428f, 
        0.00734642f, 0.10085922f, 0.22954738f, -0.15093134f, 0.10841425f, 0.05664076f, -0.11672817f, -0.02980926f, 0.12113547f, 0.08125400f, 
        -0.07288796f, 0.01910579f, 0.12896423f, -0.06172793f, -0.02896741f, 0.11693853f, -0.00600188f, 0.08098070f, -0.07234411f, -0.08241363f, 
        0.24658296f, -0.22753373f, -0.06909885f, -0.09828985f, -0.04347762f, -0.09695684f, 0.14440952f, -0.01396930f, -0.16524708f, -0.14475606f, 
        0.07352967f, -0.03813928f, 0.02808995f, 0.19913441f, 0.12781845f, 0.11687437f, -0.05871585f, -0.10129094f, 0.11332465f, -0.03556070f, 
        -0.05757017f, 0.09676110f, -0.01790977f, -0.19616659f, -0.17847840f, 0.07439563f, 0.04638520f, 0.30263600f, -0.00433615f, -0.12441499f, 
        0.06076946f, -0.16016905f, 0.19496477f, -0.07301506f, -0.02804325f, 0.27031922f, -0.03663077f, 0.21679294f, 0.04409216f, -0.08159109f, 
        -0.10267251f, -0.15165298f, 0.01010358f, 0.07501926f, -0.16107881f, -0.10272358f, 0.17365678f, -0.07025889f, 0.06421137f, 0.10969295f, 
        0.00857595f, -0.18020584f, -0.01393190f, 0.03184874f, 0.04850132f, -0.15525582f, -0.19312280f, 0.00953107f, 0.12206256f, -0.50111490f, 
        -0.19899899f, 0.07357109f, 0.29867712f, 0.07461347f, 0.08818980f, 0.27866817f, -0.56595975f, 0.23108459f, -0.10531250f, 0.08149759f, 
        0.12315118f, -0.12400743f, 0.12357292f, 0.06633230f, 0.06391750f, -0.09698806f, 0.08747667f, 0.12111048f, 0.05719705f, 0.13861863f, 
        -0.12508479f, 0.24847010f, 0.12842262f, -0.00265505f, -0.20279188f, 0.06890855f, -0.14098541f, -0.05096859f, -0.11997733f, -0.25817776f, 
        -0.11938706f, 0.36333677f, -0.34620988f, 0.15087388f, 0.14357638f, 0.12633538f, -0.01114365f, 0.60027927f, 0.05547079f, -0.00247763f, 
        0.15720448f, 0.18543065f, -0.15127763f, 0.05251378f, 0.08626019f, -0.10878484f, 0.14842783f, -0.09191906f, 0.17783579f, -0.08502048f, 
        0.08783423f, 0.20431302f, 0.17074427f, 0.07074285f, -0.11752772f, 0.14839724f, -0.10886095f, -0.42146832f, 0.12024204f, 0.14413172f, 
        0.13230084f, -0.39942512f, 0.47671124f, -0.07090513f, 0.01543910f, -0.13957490f, -0.11281321f, -0.52476096f, 0.10106230f, 0.08158827f, 
        0.11621975f, -0.06473182f, 0.05981467f, 0.12766758f, -0.09536067f, 0.15541597f, -0.13194810f, -0.08161898f, 0.07480955f, -0.11320917f, 
        0.10843860f, -0.15347831f, -0.22387315f, -0.02366263f, 0.01051045f, 0.16729587f, -0.17549543f, -0.22519116f, 0.03626662f, 0.01704938f, 
        0.20864187f, 0.44245762f, 0.19249840f, -0.03312612f, 0.05635741f, -0.23604912f, -0.13330352f, -0.40770629f, 0.10907833f, 0.17763922f, 
        -0.00725527f, 0.08003914f, 0.19941738f, 0.07441437f, 0.14499493f, 0.02993891f, 0.15942059f, 0.00877959f, -0.03263015f, -0.10484391f, 
        0.06770808f, -0.02980782f, -0.10296358f, -0.17667501f, -0.11218775f, -0.12483323f, -0.06872605f, 0.19591352f, 0.06059569f, 0.23865798f, 
        0.44096282f, 0.23424451f, -0.02789892f, -0.08575276f, 0.04561434f, 0.07994165f, 0.47338167f, 0.02221410f, -0.10242540f, -0.25053978f, 
        0.02228456f, 0.04741069f, -0.02781704f, -0.16523039f, -0.00458185f, 0.07614577f, 0.00835847f, 0.13988693f, 0.07429406f, 0.06402748f, 
        -0.04546917f, -0.09069109f, -0.05590985f, -0.13313514f, -0.08845504f, -0.18665864f, -0.03939727f, 0.08858015f, -0.05150471f, 0.13369080f, 
        0.05566142f, -0.12661786f, -0.00499733f, 0.06982870f, 0.02863120f, -0.07069390f, 0.36975849f, 0.02359535f, 0.19664586f, -0.19119900f, 
        0.04967862f, 0.16170929f, -0.16506076f, -0.06977046f, 0.11826528f, -0.07152396f, -0.06036216f, 0.15288945f, -0.01224670f, 0.02740622f, 
        0.05375287f, -0.21121328f, -0.09489176f, 0.03218044f, 0.21018544f, -0.03917541f, -0.04993030f, 0.27316502f, -0.11773292f, 0.15135141f, 
        0.08199097f, 0.19794716f, 0.24577916f, -0.09307083f, -0.04946616f, -0.28273556f, -0.11096358f, -0.22753611f, -0.01684463f, -0.17105229f, 
        -0.00223028f, 0.18971621f, -0.19207630f, 0.10271367f, -0.03688291f, -0.08879821f, 0.01685579f, 0.05829773f, -0.09752047f, 0.13456210f, 
        -0.12894338f, 0.00854015f, 0.09210885f, -0.15527251f, -0.06837410f, -0.20369297f, -0.02210947f, 0.07353074f, 0.00378096f, 0.33587897f, 
        0.00191935f, 0.30281350f, 0.38381466f, -0.04661121f, 0.06764823f, 0.26742283f, 0.01707905f, 0.39947706f, 0.28556195f, -0.05904723f, 
        -0.15584071f, 0.21416958f, -0.32825476f, -0.08102585f, -0.03615624f, 0.11356604f, 0.02401155f, -0.06838040f, 0.03807295f, 0.07788292f, 
        -0.11302438f, -0.00460788f, -0.01742227f, -0.01863835f, -0.03423421f, 0.02893285f, -0.06272081f, -0.25228503f, -0.12080690f, 0.02863169f, 
        0.04083248f, -0.33145446f, 0.42161652f, 0.16581583f, 0.12081097f, -0.11383978f, -0.41008613f, -0.61442989f, -0.02250351f, 0.10460551f, 
        0.17801194f, -0.21412234f, -0.18207665f, -0.03520727f, 0.02352216f, 0.13641389f, 0.00515575f, 0.03520689f, 0.06852838f, 0.06128821f, 
        -0.06898069f, -0.01831123f, 0.18650916f, 0.05101218f, 0.06666130f, -0.12740932f, 0.12224842f, -0.32603848f, -0.15950596f, 0.00767966f, 
        -0.00985631f, -0.56089401f, -0.51286966f, -0.14646582f, 0.05092128f, 0.19477701f, 0.01661211f, 0.38268805f, 0.17912050f, 0.01296735f, 
        0.09072228f, -0.18146206f, 0.00963313f, -0.05461385f, -0.01223240f, 0.09203000f, 0.07454375f, -0.10687449f, 0.01028353f, 0.08494040f, 
        -0.09461745f, -0.09564304f, 0.07363517f, 0.18845977f, 0.02585818f, 0.13566172f, 0.04646669f, -0.12803541f, 0.05580221f, -0.41368821f, 
        -0.05798182f, 0.19494736f, -0.41906226f, -0.03077015f, 0.00571594f, -0.13565879f, -0.13360494f, 0.30214089f, -0.11664947f, -0.03849819f, 
        0.17937434f, 0.06494602f, 0.04522742f, 0.07616650f, -0.05844001f, 0.03358375f, -0.01515874f, 0.02503770f, 0.00211321f, 0.10219772f, 
        -0.09871069f, -0.15339482f, -0.04466848f, -0.05719196f, 0.03507110f, -0.03548037f, 0.01067076f, 0.38747606f, 0.09713879f, 0.16158164f, 
        0.03996809f, -0.26458466f, 0.16751692f, -0.14469795f, -0.00405427f, -0.16992992f, 0.02068059f, -0.54184943f, -0.18595813f, -0.24940102f, 
        0.19921161f, -0.09883255f, -0.17818435f, -0.02868990f, 0.06407986f, 0.03481402f, -0.13777095f, 0.11487243f, 0.07865188f, -0.07425469f, 
        0.08691083f, 0.07477903f, -0.05691803f, 0.07037308f, -0.16507959f, 0.11837530f, -0.13770707f, 0.08508369f, -0.16731955f, 0.30513701f, 
        -0.16389219f, 0.25655517f, 0.67859179f, 0.05970826f, -0.09823505f, -0.12785460f, -0.19191124f, -0.07099838f, 0.40540886f, -0.12048987f, 
        -0.17154744f, 0.06818231f, 0.25535113f, 0.08425821f, -0.08271648f, -0.12762582f, 0.06351466f, 0.07459184f, -0.08047698f, 0.01840429f, 
        0.01007007f, 0.06884500f, -0.18077059f, 0.01094899f, -0.05570072f, -0.20408088f, -0.17818773f, 0.06621775f, 0.18102141f, 0.15337802f, 
        -0.15376699f, -0.24560769f, 0.07213841f, 0.11732398f, -0.08049051f, 0.04938051f, -0.54235715f, 0.17765789f, 0.11282044f, 0.21432488f, 
        0.33364686f, 0.23516722f, -0.20197816f, -0.12811227f, -0.02341379f, 0.01268355f, -0.07006428f, -0.08524399f, -0.07112245f, -0.01920020f, 
        -0.07285490f, 0.23348810f, 0.10682828f, -0.07062384f, -0.12249431f, 0.25780153f, 0.17288211f, -0.03316247f, -0.14512557f, -0.11457723f, 
        0.16025425f, -0.17249034f, 0.15285313f, -0.15999086f, -0.12905116f, 0.08508523f, 0.00686832f, -0.10221545f, 0.23000781f, 0.03659211f, 
        0.01046559f, -0.04336767f, 0.11383794f, 0.04321826f, -0.09730347f, -0.05032230f, -0.00477460f, -0.04588016f, -0.17364778f, -0.00036148f, 
        0.09528186f, 0.03243003f, 0.03731330f, -0.01954981f, -0.16604160f, -0.05681485f, -0.14913444f, -0.56479114f, -0.17775862f, 0.37099430f, 
        0.28366172f, 0.29029217f, 0.04312013f, 0.22843687f, 0.09015135f, 0.09137729f, 0.39404330f, 0.29279628f, 0.21305929f, -0.19628035f, 
        0.21981652f, 0.07775126f, -0.13827409f, -0.08951821f, -0.05724561f, -0.02195231f, 0.03978815f, -0.02263927f, -0.15167768f, 0.03220773f, 
        -0.04304588f, -0.19243994f, 0.07683241f, 0.01246018f, 0.17975594f, 0.04951159f, 0.18428358f, -0.29869565f, 0.12655696f, 0.05911864f, 
        0.04466140f, -0.30029973f, 0.39354068f, -0.13281865f, -0.03078001f, -0.00199317f, 0.01813189f, -0.21234742f, -0.06104574f, -0.24507383f, 
        0.18195602f, 0.07402818f, -0.05986248f, -0.07151406f, 0.08465718f, 0.07071193f, -0.18015771f, 0.12078298f, -0.10336135f, -0.10327874f, 
        0.14532299f, -0.16731440f, 0.13473049f, -0.08317232f, 0.08679325f, -0.08283373f, -0.09562161f, 0.38798580f, 0.09903979f, 0.05944604f, 
        -0.09913477f, -0.00673314f, 0.19083464f, 0.00791618f, -0.18888961f, -0.02536305f, 0.11459538f, -0.08070588f, 0.24377267f, -0.04236064f, 
        0.08792662f, 0.06468328f, -0.04106380f, 0.06638683f, 0.06252063f, 0.01002176f, -0.16185451f, 0.12084781f, 0.12560622f, 0.15622388f, 
        -0.11848632f, -0.14967887f, -0.02399086f, -0.02782552f, -0.01847669f, -0.18400358f, -0.18360786f, -0.41371644f, -0.12565885f, -0.00165164f, 
        -0.08820627f, -0.15713720f, 0.11713794f, 0.20884950f, -0.02954888f, -0.09362210f, 0.08057911f, -0.05012296f, -0.12326398f, -0.04527957f, 
        -0.10501912f, -0.24499013f, -0.03427119f, 0.03689263f, 0.09589338f, -0.20060414f, 0.05490739f, -0.23240411f, -0.02232049f, 0.04943618f, 
        0.10431738f, -0.12205341f, -0.13545671f, -0.07188025f, -0.15125975f, -0.25113636f, -0.04176791f, 0.31401426f, -0.13307303f, 0.19818619f, 
        -0.14123553f, -0.27464369f, 0.42527354f, -0.04218379f, 0.10714504f, -0.17405666f, 0.10135657f, -0.24440123f, -0.20684549f, -0.17065501f, 
        -0.21296313f, -0.19638899f, -0.23848364f, -0.13398632f, 0.09003059f, -0.11975008f, -0.11336847f, 0.10194132f, 0.12509018f, 0.05615060f, 
        -0.09852687f, -0.06446412f, 0.14389321f, -0.13320875f, -0.22902626f, 0.16604230f, 0.06111249f, -0.33526057f, 0.06069253f, 0.06429256f, 
        -0.12989289f, -0.19754629f, 0.05473620f, -0.17746182f, 0.14654891f, 0.24991676f, -0.07318201f, -0.21872072f, -0.26713091f, 0.22433040f, 
        0.04858164f, 0.00905919f, -0.14523818f, -0.00419333f, 0.12698451f, 0.10833778f, 0.09903310f, 0.13130979f, -0.06176947f, -0.04149643f, 
        -0.04141303f, 0.23600285f, 0.06691443f, 0.07731941f, -0.07431496f, 0.13008262f, 0.25912079f, -0.03496178f, 0.13701969f, -0.31729168f, 
        0.16362555f, 0.49147373f, -0.03044034f, -0.10493986f, 0.14558421f, 0.27502450f, 0.06497515f, 0.53171974f, -0.18161027f, -0.23119359f, 
        0.02743176f, 0.07600179f, 0.03838767f, 0.04172896f, 0.09813418f, 0.04292537f, 0.05369633f, -0.11666376f, 0.01123508f, -0.01687229f, 
        -0.07554126f, -0.19847775f, -0.07966018f, -0.00762799f, 0.00351337f, 0.15739670f, 0.12080882f, -0.04702238f, 0.18204546f, -0.14315793f, 
        -0.07408583f, -0.20464666f, -0.24365182f, 0.09386804f, -0.03349137f, -0.00517478f, -0.24039406f, -0.23124006f, -0.01250351f, 0.18695085f, 
        0.13771549f, 0.06526063f, -0.10001274f, 0.09913954f, 0.00774349f, -0.15224659f, 0.10579454f, 0.17377770f, -0.15088835f, 0.04779267f, 
        -0.00016458f, 0.13436449f, 0.17610864f, 0.10448173f, 0.16545598f, 0.13819581f, -0.00415427f, -0.10728589f, -0.10389764f, 0.06203337f, 
        0.18324135f, -0.02963756f, -0.32472187f, 0.03513795f, 0.10048672f, 0.15404649f, 0.10218362f, -0.09365254f, 0.01085672f, -0.01348451f, 
        -0.13535000f, 0.06932481f, 0.06577692f, -0.09660221f, 0.01337429f, -0.05870712f, -0.10797700f, -0.11732106f, -0.23336899f, -0.02272308f, 
        0.11157915f, 0.05873196f, -0.10064071f, -0.19178252f, -0.12646247f, -0.16891760f, -0.04551063f, -0.17002596f, 0.07628591f, -0.05277903f, 
        -0.06970146f, -0.04798707f, -0.08182374f, -0.03969010f, 0.09097487f, 0.29735237f, 0.14130981f, 0.41340756f, -0.19340311f, 0.07383021f, 
        -0.22267409f, 0.00031788f, -0.23986173f, -0.04901696f, 0.03722304f, 0.11686704f, 0.09788354f, 0.01625551f, 0.08077300f, -0.01099133f, 
        0.00661950f, -0.18998457f, -0.18929812f, 0.03928294f, -0.08574679f, 0.04932035f, -0.06531111f, 0.12895212f, -0.15785857f, -0.38653520f, 
        0.10050512f, -0.10999706f, 0.38583499f, -0.10921370f, -0.01519130f, -0.32527494f, 0.09621415f, 0.00952717f, 0.25944126f, 0.06934858f, 
        0.12120353f, 0.12055378f, -0.08246105f, -0.15230978f, -0.13008434f, 0.01777856f, -0.00991484f, 0.02703757f, 0.20143074f, 0.04713492f, 
        0.11695160f, -0.21584508f, -0.08693307f, 0.09489496f, 0.16820535f, -0.24967223f, -0.22277774f, -0.11027501f, 0.13840722f, -0.16597965f, 
        -0.21225612f, 0.29424995f, -0.11760131f, -0.07655416f, -0.06137663f, 0.17045926f, -0.32014331f, 0.09789646f, 0.13445583f, 0.17248422f, 
        0.19583292f, -0.13959311f, 0.20188423f, 0.13342853f, -0.03709926f, 0.03484294f, 0.03910844f, -0.06922361f, 0.11952052f, -0.07023194f, 
        0.10650486f, -0.05632641f, 0.21494476f, -0.13773818f, 0.10358290f, 0.18253700f, -0.00783717f, -0.21718657f, 0.15289153f, 0.14769813f, 
        -0.14385222f, 0.15331385f, -0.23832193f, 0.06725304f, 0.03321916f, 0.23058514f, -0.41313443f, 0.41899899f, 0.21734926f, 0.20083368f, 
        0.09581427f, -0.03042527f, -0.04033225f, -0.06545227f, -0.06842657f, -0.10911255f, -0.03951212f, -0.12955815f, -0.19541031f, -0.01064617f, 
        -0.05340433f, 0.03351888f, 0.17004128f, 0.15806873f, -0.17919588f, 0.05685245f, -0.02274383f, -0.15220875f, 0.00960704f, -0.52329749f, 
        0.03272700f, 0.20062146f, 0.03826234f, 0.02260124f, -0.01740149f, 0.02627951f, -0.19543803f, 0.19191056f, -0.28336233f, 0.15240861f, 
        0.21066427f, -0.26955345f, 0.23503186f, 0.08194248f, 0.01530284f, -0.03188336f, 0.09800117f, -0.16565470f, 0.15004081f, -0.03628540f, 
        -0.01847007f, 0.19385871f, 0.07302523f, -0.12231938f, -0.10068662f, 0.18767089f, -0.06521804f, 0.12388090f, -0.01430955f, 0.01920347f, 
        0.06949255f, 0.17425522f, 0.51391929f, -0.36831427f, 0.00949344f, -0.01344061f, 0.30680692f, 0.01881648f, 0.06362659f, -0.03898668f, 
        -0.01745911f, 0.05365384f, 0.07374042f, 0.08539172f, 0.01780019f, -0.08504747f, -0.05603962f, -0.12454181f, 0.08091977f, 0.08977526f, 
        -0.13402946f, 0.03809353f, -0.13889380f, -0.08187647f, -0.00472257f, 0.09676062f, 0.13329566f, -0.27509812f, -0.10329936f, 0.34360316f, 
        -0.07428483f, 0.16112618f, 0.15757281f, 0.28039664f, -0.18557419f, 0.15733704f, -0.05931367f, 0.33772972f, -0.08152768f, -0.01480857f, 
        -0.11446177f, -0.10874857f, -0.03332752f, -0.04296309f, -0.00269675f, -0.09425677f, -0.17679250f, -0.04323337f, 0.07091589f, -0.13284090f, 
        0.06348729f, -0.15521038f, -0.14721522f, 0.06336299f, -0.09775490f, -0.08898936f, -0.16208015f, -0.02821588f, -0.11931170f, -0.14565979f, 
        0.09257277f, -0.16418779f, 0.29596519f, 0.11469422f, 0.08377428f, -0.07719947f, 0.11924236f, -0.16916566f, 0.31431180f, -0.03744100f, 
        -0.00197085f, -0.00269147f, 0.15489468f, -0.02773808f, -0.02984538f, 0.10207304f, 0.07741026f, -0.07128105f, 0.12477379f, -0.12006636f, 
        -0.11423930f, -0.02436886f, 0.01742842f, -0.17245170f, -0.04531864f, -0.03559962f, -0.04109718f, 0.04495759f, 0.09975907f, 0.09789823f, 
        -0.18907814f, -0.04693435f, 0.01679414f, 0.11138173f, -0.04149820f, -0.00267250f, -0.26255682f, -0.28822047f, -0.17177793f, 0.15406170f, 
        0.22016855f, -0.00128979f, 0.19589742f, -0.04227478f, 0.14191265f, -0.07569473f, -0.07490310f, 0.07806655f, -0.12961307f, -0.04081256f, 
        -0.02594538f, -0.13792263f, 0.02194597f, -0.01450137f, 0.00312218f, -0.11054754f, 0.24735676f, -0.01585263f, -0.07531334f, 0.11132369f, 
        -0.15545715f, -0.00775864f, 0.18300080f, 0.14522201f, 0.11202761f, 0.11286392f, 0.25346643f, -0.04287878f, -0.04136391f, 0.21445957f, 
        -0.01053491f, -0.19186597f, 0.02120773f, 0.01334607f, 0.11741305f, -0.13846594f, -0.01611719f, 0.05033730f, -0.09363469f, -0.05240959f, 
        -0.00525833f, 0.08061043f, -0.13423117f, -0.13434573f, -0.10202220f, 0.11216540f, -0.05198826f, -0.18878920f, -0.16678691f, -0.22084391f, 
        -0.15968457f, 0.44144121f, -0.19804354f, 0.27700129f, 0.02665011f, -0.19570746f, -0.06015924f, 0.29379603f, -0.16410093f, 0.17949466f, 
        -0.08212696f, -0.18749505f, 0.07249355f, -0.06955110f, 0.02122544f, 0.04575732f, 0.03510202f, 0.11764010f, 0.14977218f, -0.00599610f, 
        -0.08770429f, -0.06020660f, -0.00025295f, 0.14647639f, 0.14133464f, 0.15162417f, 0.00993016f, -0.13594522f, -0.08517491f, -0.22538006f, 
        0.15396675f, -0.04527297f, -0.39638588f, 0.02723968f, 0.11421432f, -0.04512304f, 0.00100756f, 0.11838058f, 0.01987610f, 0.04618449f, 
        -0.01880429f, 0.21843003f, 0.02359521f, 0.03083294f, 0.16061877f, 0.03991770f, 0.04084844f, -0.06377549f, 0.12335484f, 0.12804991f, 
        -0.13869287f, 0.19590114f, 0.06151866f, 0.13991606f, 0.04974284f, 0.13859998f, -0.01643328f, 0.21274868f, -0.06103342f, 0.29991943f, 
        0.32612589f, -0.26430199f, -0.30198762f, 0.13565886f, 0.01306051f, 0.03290429f, 0.36718071f, -0.35116103f, -0.23395459f, 0.06143410f, 
        -0.03689916f, -0.10722357f, 0.12028719f, 0.10533065f, -0.07702428f, 0.09750430f, -0.03964442f, 0.03345319f, -0.00548544f, 0.07275201f, 
        -0.08915824f, -0.09439369f, 0.06497800f, 0.09016567f, 0.06309006f, 0.18301232f, 0.12468711f, 0.04146044f, -0.00535308f, -0.23448457f, 
        0.24930139f, 0.25539058f, -0.31811243f, -0.14469917f, 0.07394081f, 0.04092645f, 0.30383968f, -0.12673759f, -0.05299388f, 0.15679938f, 
        0.06801146f, -0.04773636f, -0.21983829f, 0.05537506f, 0.00613389f, -0.09165596f, 0.08649611f, -0.17608288f, 0.11346669f, 0.06121344f, 
        0.08811539f, 0.00831618f, 0.02877921f, -0.05320555f, -0.05109328f, 0.01840069f, -0.02967959f, -0.40503427f, -0.07934260f, -0.05928176f, 
        -0.08058842f, -0.15787195f, -0.49585217f, -0.06808758f, 0.12421209f, 0.07255900f, -0.33556464f, 0.22887129f, 0.03462768f, 0.09974201f, 
        0.18380493f, 0.12855250f, -0.29717517f, -0.12721327f, -0.02449007f, 0.12799826f, -0.11792897f, 0.01248748f, 0.08028860f, 0.10267247f, 
        -0.06115127f, 0.16081752f, -0.01432532f, -0.07018320f, 0.13373530f, 0.06312243f, 0.01261156f, -0.02783551f, -0.06529731f, 0.08522207f, 
        -0.09227521f, 0.06498091f, -0.23714642f, 0.18512775f, -0.10521618f, 0.22587059f, 0.07099321f, 0.27856761f, -0.02654151f, 0.18626752f, 
        -0.12639268f, 0.24995272f, 0.21105665f, 0.07328203f, -0.02502204f, -0.05862322f, 0.05126120f, 0.01202216f, 0.02584269f, -0.07135731f, 
        0.12434958f, -0.02760939f, -0.19460393f, 0.05390285f, 0.24818163f, 0.07059801f, 0.08348566f, 0.24960743f, 0.01404420f, -0.35758275f, 
        0.06815547f, 0.17249484f, 0.18792374f, 0.15664555f, 0.01808700f, 0.10786282f, -0.08095048f, 0.32234889f, -0.04208568f, 0.20069310f, 
        -0.09078351f, -0.29645810f, -0.05554823f, -0.10599735f, 0.08419204f, -0.15860555f, 0.15881047f, 0.00216028f, -0.18876764f, 0.04602852f, 
        -0.08870461f, 0.19882564f, 0.03952212f, -0.14958276f, -0.04929997f, 0.16033189f, 0.17942992f, 0.11662370f, -0.01275557f, -0.37891513f, 
        0.34917477f, 0.29266217f, -0.28730562f, -0.15154217f, 0.10100279f, -0.14869052f, 0.43891460f, -0.19971597f, 0.12906384f, 0.19527067f, 
        -0.02475470f, 0.02594771f, -0.12325003f, 0.05111959f, -0.02725385f, 0.03106522f, 0.01098110f, 0.17777650f, -0.18379162f, 0.06766379f, 
        0.01999768f, 0.04490383f, -0.16498379f, 0.00659005f, 0.00001127f, -0.22216693f, 0.01375043f, -0.18451524f, 0.02809332f, 0.26925689f, 
        0.15640639f, -0.72348195f, -0.00131232f, 0.04522024f, 0.03367682f, 0.06163718f, -0.08010913f, -0.28088033f, 0.03097384f, -0.29645339f, 
        0.07836729f, 0.14913197f, -0.25028953f, 0.03665719f, 0.10597643f, -0.02851907f, 0.09656234f, -0.04316613f, -0.05806145f, 0.10172278f, 
        -0.06113257f, -0.02930534f, 0.21765828f, -0.01051465f, 0.00239093f, -0.19813907f, -0.12945229f, -0.02825288f, 0.11055458f, 0.26141664f, 
        0.05948451f, -0.20259255f, 0.38187915f, -0.26470229f, -0.14781064f, 0.07518006f, 0.01361021f, -0.18584859f, 0.03457886f, -0.07602672f, 
        0.10321539f, -0.13256410f, -0.09489901f, 0.08252310f, 0.04925204f, 0.04653428f, -0.16008860f, 0.15352014f, 0.02848284f, 0.07770068f, 
        -0.08925620f, -0.05042804f, -0.00837183f, -0.08346956f, -0.19206716f, 0.14836913f, 0.05922937f, -0.18210252f, -0.17799903f, -0.15200162f, 
        -0.05587365f, -0.38030198f, 0.41615692f, 0.08081809f, -0.20747998f, 0.12474980f, -0.36386836f, 0.29744267f, 0.28507128f, 0.05149777f, 
        0.24784568f, 0.05507225f, -0.21589041f, -0.09856592f, 0.02486572f, -0.11534886f, 0.02617893f, -0.08063655f, -0.09259547f, -0.00636832f, 
        -0.00670879f, -0.12817639f, -0.04532840f, -0.14992628f, 0.06106902f, 0.06607246f, -0.11932249f, -0.04230069f, -0.11407249f, 0.05930733f, 
        -0.00870250f, -0.09423682f, -0.04853931f, -0.25282136f, 0.03990506f, 0.12887435f, 0.39474383f, -0.02157128f, 0.31565389f, -0.14094763f, 
        -0.07692838f, -0.27108720f, 0.16823024f, 0.15747420f, 0.06166984f, 0.08336201f, 0.02893799f, 0.01767163f, -0.01498012f, 0.13701813f, 
        0.03860444f, -0.04109751f, -0.14516796f, -0.03674979f, 0.11163714f, -0.05396178f, -0.18880036f, -0.04612922f, -0.03485201f, -0.34748030f, 
        -0.18619280f, -0.26335472f, 0.36184108f, -0.10321397f, -0.16626777f, 0.00389269f, 0.08982465f, -0.19105074f, 0.22873159f, -0.16185284f, 
        -0.04948935f, 0.16136853f, 0.09321684f, -0.08800118f, 0.00793592f, 0.05321485f, -0.20525278f, -0.12430734f, 0.02616134f, 0.09775004f, 
        -0.07205847f, -0.09754532f, 0.06174707f, -0.03474424f, -0.04864582f, -0.17985310f, -0.09896549f, -0.11728025f, -0.06030806f, -0.18464477f, 
        -0.20439348f, 0.50246114f, -0.38421869f, 0.15592635f, -0.07860174f, -0.16233879f, 0.07771510f, -0.10573168f, -0.38200185f, -0.00029347f, 
        0.13067114f, -0.08038627f, -0.08568482f, 0.02534921f, -0.10518769f, 0.10928783f, -0.03879280f, 0.09563335f, -0.14277145f, 0.10752225f, 
        -0.03508086f, -0.12894349f, -0.09435655f, 0.01816771f, -0.08971895f, -0.16241507f, 0.04420846f, 0.03586343f, 0.16119899f, 0.04580408f, 
        -0.11687128f, 0.55880719f, -0.24751268f, -0.12600687f, -0.07280998f, -0.00918188f, 0.11118505f, 0.15900356f, -0.08930819f, -0.07268488f, 
        -0.15869318f, -0.08590097f, 0.00216967f, -0.07462595f, -0.09994760f, 0.01543841f, -0.13085961f, 0.13390359f, -0.12468743f, -0.03930646f, 
        0.07893225f, -0.15483509f, 0.01282281f, 0.14000840f, 0.12568381f, -0.11475397f, -0.06213805f, 0.44794127f, -0.13083789f, 0.02048522f, 
        0.01884683f, 0.40058133f, -0.04165386f, 0.02124202f, -0.14499891f, 0.12842186f, -0.22376299f, 0.04171763f, 0.21182042f, 0.22589432f, 
        0.16789259f, -0.33601385f, -0.05749394f, 0.16732781f, -0.06841932f, -0.00330239f, -0.08706092f, 0.12949258f, -0.15784472f, -0.05317547f, 
        0.02479768f, 0.05994247f, 0.12363807f, 0.16107957f, -0.02450956f, 0.04541749f, -0.07595236f, -0.19201522f, -0.07186916f, -0.19869918f, 
        0.17258820f, -0.03563180f, 0.52735382f, -0.08137512f, 0.10757948f, -0.07115152f, 0.38311031f, -0.32018283f, 0.21818334f, 0.10083649f, 
        -0.10039610f, -0.15032449f, 0.00386264f, 0.08056460f, 0.08085658f, 0.11273509f, -0.01754314f, -0.11634634f, 0.14341217f, 0.00572175f, 
        -0.08673874f, -0.16587187f, 0.01865400f, -0.00391506f, -0.04332440f, 0.06922849f, 0.06341256f, -0.06961176f, -0.14415298f, 0.13622038f, 
        -0.30123091f, 0.31822202f, -0.34247959f, 0.19341290f, 0.03170138f, -0.28279176f, 0.33790618f, -0.21250798f, 0.04562551f, -0.07351385f, 
        0.00495249f, 0.10581592f, 0.06275325f, -0.11527525f, -0.09642594f, 0.11284757f, 0.03213486f, -0.09666192f, -0.02701919f, 0.01300400f, 
        -0.01650563f, -0.13238543f, -0.00348406f, 0.16910461f, -0.00946603f, -0.01907679f, -0.07551318f, 0.11468541f, -0.01043679f, 0.14334330f, 
        -0.27290532f, 0.57390851f, -0.01409384f, 0.31651840f, 0.00288256f, 0.31762439f, -0.37947580f, 0.50993317f, -0.09105777f, 0.29748049f, 
        0.18292186f, -0.05841263f, -0.18994243f, 0.00885271f, -0.14330333f, -0.05373942f, -0.00617127f, -0.15820262f, -0.01508084f, -0.08028520f, 
        0.09405739f, 0.19494428f, -0.03315540f, -0.04007306f, 0.14864521f, -0.15836039f, -0.16794062f, 0.03224329f, -0.14765194f, 0.04765237f, 
        -0.51784372f, 0.00323365f, -0.14774089f, -0.05596720f, -0.08760818f, 0.13458405f, -0.71088427f, -0.26617503f, -0.20106997f, -0.00521729f, 
        0.01043159f, 0.05669537f, -0.24798961f, -0.00164668f, 0.00164770f, 0.11038145f, -0.09496655f, 0.01005991f, 0.02307145f, 0.13715144f, 
        -0.13232440f, 0.16352534f, 0.09246706f, 0.15010338f, -0.09296337f, -0.06914828f, 0.09056531f, 0.13578078f, -0.07484433f, -0.42355400f, 
        -0.25607470f, -0.29419333f, -0.40482429f, -0.01006682f, -0.05719452f, -0.26927105f, -0.41200829f, -0.23323187f, -0.17124994f, 0.07469577f, 
        0.20240381f, -0.14648324f, 0.27229729f, 0.14488770f, -0.04680726f, -0.07604259f, -0.04144983f, -0.09704971f, -0.06588932f, -0.06741177f, 
        -0.05070648f, -0.08661146f, -0.14289466f, 0.04898001f, -0.13985394f, -0.01759653f, 0.00579986f, 0.11720106f, -0.02982105f, 0.32008362f, 
        -0.00412397f, 0.03044107f, -0.09960270f, 0.11712750f, 0.15182179f, -0.27894303f, 0.16881765f, 0.00201641f, -0.02294345f, -0.21105017f, 
        0.24246682f, -0.02193992f, 0.03720993f, -0.01325652f, 0.15091096f, 0.12292533f, -0.00736160f, 0.14191711f, -0.07191690f, -0.11486101f, 
        -0.03877913f, -0.16142993f, 0.17037611f, -0.17681536f, -0.03849892f, -0.08019408f, 0.13601805f, -0.00789099f, -0.09565410f, -0.10993677f, 
        0.34394118f, 0.27100766f, -0.30045104f, 0.06718347f, 0.03378268f, 0.11910634f, 0.24695170f, 0.41558966f, -0.12467745f, -0.06510550f, 
        0.04286936f, -0.09396749f, 0.22376205f, -0.01855208f, -0.10339445f, 0.12948680f, 0.06387445f, -0.00000261f, -0.00978068f, 0.05165390f, 
        -0.06029879f, -0.13864937f, -0.20261012f, -0.12931947f, 0.16828577f, 0.13328956f, -0.01255767f, -0.07416117f, 0.11554097f, -0.16429268f, 
        0.03737696f, -0.29864299f, 0.29196119f, 0.10563238f, -0.08589453f, -0.10183534f, 0.44828972f, 0.00450789f, 0.06940503f, -0.24999061f, 
        0.16492884f, 0.18384303f, 0.07816778f, -0.05152430f, 0.02176077f, -0.09935983f, 0.05284583f, -0.15394130f, -0.02219293f, 0.03668848f, 
        0.08203713f, -0.09264706f, -0.05128750f, -0.13646020f, -0.14518151f, 0.02290625f, -0.01134008f, -0.08998190f, 0.07766473f, 0.41539729f, 
        0.20507039f, -0.13486843f, -0.40759346f, 0.13054009f, -0.16007693f, -0.09575173f, 0.47991312f, 0.24140745f, 0.19311748f, -0.10466055f, 
        0.09740531f, 0.00068591f, -0.00432480f, 0.03855363f, 0.02660982f, 0.06739610f, -0.17664094f, -0.12162603f, -0.00552301f, -0.10765219f, 
